{"format":"kalah-zero-browser-agent-v1","source":"residual_depth.pt","config":{"pits":6,"model_type":"residual","hidden_size":128,"residual_blocks":3},"state_dict":{"input_layer.0.weight":{"shape":[128,15],"values":[-0.0019315053941681981,0.13840781152248383,-0.2123066782951355,-0.18981598317623138,-0.09934510290622711,0.06918726861476898,-0.005112574435770512,0.20452052354812622,-0.02290094830095768,0.06827200204133987,-0.0779804140329361,-0.0507022999227047,-0.24646726250648499,-0.1708991825580597,-0.10633421689271927,0.009558276273310184,0.10197377949953079,0.1548238843679428,-0.17494229972362518,-0.11233469098806381,0.09371545910835266,0.21420258283615112,-0.05308671295642853,0.193010613322258,-0.041592031717300415,0.027295751497149467,0.2335902899503708,-0.2393207997083664,-0.16244466602802277,-0.06531631946563721,-0.10054458677768707,0.22288139164447784,-0.16725793480873108,-0.11875610798597336,-0.18028686940670013,-0.241616353392601,-0.15061981976032257,0.2217445969581604,0.11511176079511642,0.12504059076309204,0.013566416688263416,-0.13227298855781555,0.04365796595811844,-0.24087628722190857,-0.18646447360515594,-0.5649539232254028,0.5299798846244812,0.33129775524139404,-0.33250173926353455,0.21195180714130402,0.2280961573123932,0.20533999800682068,-0.076789990067482,-0.029201852157711983,0.03912656009197235,-0.21511626243591309,0.046794045716524124,-0.13457007706165314,-0.07507249712944031,-0.1056695505976677,0.4528634548187256,0.26700687408447266,-1.1348278522491455,0.05617981031537056,-0.14985807240009308,-0.19941911101341248,-0.028889089822769165,0.0958213210105896,0.1555619239807129,0.3250134587287903,-0.16416774690151215,-0.13409747183322906,0.004596855025738478,0.14977233111858368,0.129848912358284,0.37900540232658386,0.19154156744480133,-0.1755117028951645,0.037054143846035004,-0.20091849565505981,-0.4044586420059204,0.32419857382774353,0.18305492401123047,-0.24230562150478363,0.10506763309240341,-0.007334790658205748,0.05113764479756355,-0.14351969957351685,0.12678763270378113,-0.13172128796577454,0.09455214440822601,0.13047194480895996,0.18473590910434723,0.09644211083650589,-0.25534588098526,-0.16739149391651154,0.1288212537765503,0.05399071052670479,-0.20121416449546814,-0.1485746204853058,0.24269776046276093,0.17387770116329193,-0.11247988045215607,-0.06493406742811203,-0.2457571178674698,-0.01152012962847948,-0.6186113357543945,-1.577257513999939,0.20434652268886566,0.03153853863477707,-0.08722897619009018,0.18754331767559052,-0.02275247685611248,0.18111810088157654,0.11759230494499207,-0.05012599378824234,0.012152100913226604,-0.019790658727288246,0.0033378901425749063,0.02224060334265232,0.39073169231414795,0.3101244568824768,-0.15505725145339966,0.594836950302124,-0.3000207841396332,-0.3590826988220215,-0.0664251446723938,-0.18507355451583862,-0.1631089746952057,-0.20711053907871246,-0.1725931018590927,-0.09928061068058014,-0.21100611984729767,-0.04435860365629196,0.1689263880252838,-0.026517577469348907,0.007169586140662432,-0.02226186916232109,0.05220397934317589,0.1640717089176178,0.24437525868415833,0.16386939585208893,0.24493485689163208,-0.01866070367395878,-0.2317429631948471,-0.12230488657951355,0.1757076382637024,-0.0016721864230930805,-0.12823548913002014,-0.19765819609165192,-0.2414333075284958,-0.21771933138370514,-0.05232156068086624,0.14149649441242218,0.13949158787727356,-0.24881258606910706,0.16095849871635437,-0.20184041559696198,-0.054535236209630966,-0.1045912578701973,-0.049682386219501495,-0.050644803792238235,-0.23149210214614868,-0.22273604571819305,-0.04037749394774437,0.0033359082881361246,-0.11719194054603577,0.09716198593378067,-0.23219141364097595,-0.017412465065717697,0.22686246037483215,-0.10521592944860458,0.23295174539089203,0.09345703572034836,-0.23281174898147583,0.16326041519641876,-0.02976939268410206,-0.11516042053699493,0.20626693964004517,-0.20844663679599762,0.02768068201839924,-0.05400810390710831,0.18428176641464233,0.0720241442322731,0.12396461516618729,0.09113458544015884,-0.062039636075496674,-0.05424996837973595,-0.21257424354553223,0.1398022174835205,0.20480160415172577,0.1765647679567337,-0.18202656507492065,0.011509309522807598,-0.1819118708372116,-0.2405201494693756,-1.6959807872772217,-0.2085569202899933,-0.5063790678977966,0.15209630131721497,0.21263326704502106,0.09442787617444992,-0.02976471185684204,0.013900975696742535,-0.1585492044687271,0.09861762076616287,-0.08451269567012787,0.1699923574924469,-2.955427044071257e-05,-0.036801666021347046,-0.013200009241700172,-0.05999620631337166,-0.00454220874235034,-0.07625880092382431,-0.017706189304590225,0.019445201382040977,-0.23842783272266388,-0.11952203512191772,0.1921670287847519,-0.2227035015821457,-0.028767874464392662,0.24748462438583374,0.06659436225891113,-0.022778911516070366,-0.25251489877700806,0.28504231572151184,-0.4148975610733032,-0.02628345414996147,-0.12881432473659515,-0.17381902039051056,-0.2875944972038269,0.30021506547927856,-0.02113494649529457,0.2423117756843567,0.21020568907260895,-0.11904627084732056,0.14910821616649628,-0.1908777952194214,0.0008081169216893613,0.07509016245603561,0.05040412396192551,0.22126178443431854,0.010523955337703228,0.10117113590240479,0.3054673373699188,-1.3296267986297607,0.061992719769477844,-0.04365534335374832,-0.02221197821199894,-0.14022210240364075,-0.22360290586948395,0.010603144764900208,0.28332778811454773,0.017736217007040977,-0.12466170638799667,0.1014140173792839,-0.6281436085700989,0.4879935383796692,-0.41747725009918213,-0.2731810212135315,-0.4027388393878937,0.22020821273326874,0.14723488688468933,0.27555128931999207,0.20435884594917297,0.06630590558052063,-0.10566650331020355,-0.005875000264495611,0.16613690555095673,0.026869770139455795,-0.12206427752971649,-0.12127213180065155,-0.24391639232635498,0.055732689797878265,-0.14479537308216095,-0.23000122606754303,0.22620587050914764,-0.1675759255886078,-0.029347771778702736,0.07392165064811707,0.00821945071220398,-0.17363598942756653,-0.20850510895252228,0.20560313761234283,0.04201943799853325,0.2140054702758789,-0.08650808781385422,0.07600321620702744,-0.058993276208639145,-0.011476066894829273,-0.1571532040834427,0.08727243542671204,0.08158302307128906,-0.005323107820004225,-0.058018822222948074,-0.15906016528606415,0.17845475673675537,-0.19200682640075684,0.10567384213209152,-0.08676961809396744,-0.12447137385606766,0.04635882377624512,-0.13402189314365387,0.05943961441516876,0.05065465345978737,-0.19150729477405548,0.04296440631151199,0.10987311601638794,0.10210179537534714,-0.032476406544446945,-0.21146559715270996,-0.03977707400918007,0.08962379395961761,-0.09410953521728516,0.09790609031915665,0.16580873727798462,-0.13471762835979462,0.0025447295047342777,0.10062839835882187,0.014189164154231548,0.02155507355928421,0.026179535314440727,-0.20277981460094452,0.020278731361031532,0.17265258729457855,0.22642269730567932,0.14562010765075684,0.028532331809401512,0.11444345861673355,-0.13154979050159454,-0.2137637585401535,-0.22182801365852356,0.25737905502319336,0.16380058228969574,-0.17837445437908173,0.10091707855463028,0.19478078186511993,0.2578967809677124,0.2255651354789734,0.19983790814876556,-0.05914381891489029,-0.09056208282709122,0.2117912471294403,0.14458806812763214,-0.1552773416042328,0.2732708156108856,0.23190012574195862,0.23931190371513367,-1.3582390546798706,0.04620085284113884,-0.08811742067337036,0.23820114135742188,-0.05064116045832634,0.017385154962539673,0.07920604199171066,0.132503941655159,0.021677184849977493,0.14282266795635223,-0.012511203065514565,0.0842689499258995,-0.1745939403772354,-0.2545202374458313,-0.20714545249938965,0.20363764464855194,0.1395934820175171,0.242043599486351,0.20664595067501068,-0.23038068413734436,-0.17610162496566772,-0.041695114225149155,-0.16758136451244354,0.17919106781482697,-0.19499771296977997,-0.12587428092956543,-0.24924106895923615,-0.3235327899456024,0.35170501470565796,0.14773496985435486,0.2821674644947052,0.3671572506427765,0.38649916648864746,-0.22218528389930725,0.002141258679330349,0.15752564370632172,-0.04224831238389015,0.14904366433620453,0.040852975100278854,0.11717892438173294,-0.21012432873249054,0.06501504778862,0.1644202172756195,0.011849947273731232,-0.29473865032196045,-0.5156713724136353,-0.40724340081214905,0.09447848051786423,0.1460670530796051,-0.0751352608203888,-0.04499438405036926,0.3090941607952118,0.22515740990638733,0.21012108027935028,-0.21505078673362732,0.23147569596767426,0.060492776334285736,-0.8283939361572266,0.7506434321403503,0.4486878514289856,-0.012087671086192131,0.14446376264095306,-0.36601749062538147,-0.1077795922756195,0.04740363359451294,-0.14277201890945435,-0.30030399560928345,-0.27671799063682556,-0.3577820956707001,-0.1396450698375702,-0.03608222305774689,0.12971548736095428,0.0850609689950943,-0.5237226486206055,0.25997263193130493,0.2978118360042572,0.29307660460472107,-1.4613441228866577,-0.02892957627773285,-0.02688067965209484,-0.01279460173100233,0.030959071591496468,-0.033791203051805496,0.20001301169395447,0.19061201810836792,-0.004715638235211372,-0.18101759254932404,-0.09245811402797699,0.05633070692420006,-0.19662700593471527,0.1281745433807373,-0.23420825600624084,-0.24800221621990204,-0.25067904591560364,-0.05232842266559601,0.17352010309696198,-0.24417716264724731,0.21440893411636353,-0.10318413376808167,0.0755716860294342,0.011761956848204136,-0.2326202094554901,0.6193576455116272,0.34203532338142395,0.9289027452468872,0.20141468942165375,-0.39861392974853516,0.2316562831401825,-0.06441763043403625,-0.005141005851328373,-0.2317109853029251,-0.1998140960931778,-0.3621387183666229,-0.35299214720726013,0.0499289445579052,-0.12830136716365814,0.09399305284023285,0.42750096321105957,0.1555231660604477,-0.42521634697914124,-0.6039586663246155,-0.189168319106102,0.3196199834346771,0.14375363290309906,0.07834941148757935,0.046986598521471024,0.10767056047916412,-0.2564915418624878,-0.24281258881092072,0.08001942932605743,-0.19851352274417877,0.08508269488811493,-0.3505273759365082,-0.3777574300765991,-0.2713606655597687,0.23981931805610657,0.09303520619869232,0.3864026367664337,-0.07528980076313019,0.05393226444721222,0.024162596091628075,-0.13744525611400604,-0.06551700085401535,-0.13401851058006287,0.006360846571624279,-0.33536094427108765,0.11584635078907013,-0.06418831646442413,-0.3641357421875,-0.3823353946208954,0.3651912808418274,0.49935972690582275,-0.16732294857501984,0.058617882430553436,0.11192428320646286,0.1331930309534073,0.17959058284759521,-0.13622070848941803,0.14470766484737396,0.14168775081634521,-0.03563817963004112,0.1100371927022934,-0.07423661649227142,0.1595330685377121,-0.07158780843019485,-0.0961541086435318,0.06495065987110138,0.09153084456920624,-0.12604732811450958,0.022811686620116234,0.14953415095806122,-0.025664610788226128,0.0785280168056488,-0.06222354620695114,0.09044794738292694,-0.18693645298480988,-0.15172705054283142,-0.09858258068561554,0.17953844368457794,-0.03588514402508736,-0.005193389020860195,-0.15633369982242584,0.25185883045196533,0.24500375986099243,-0.19051365554332733,-0.24048057198524475,-0.19563746452331543,0.037115421146154404,-0.03387587517499924,-0.19108128547668457,-0.10711108148097992,0.03555199131369591,-0.21291692554950714,0.13681097328662872,-0.12378199398517609,-0.3463049829006195,0.0005840648664161563,0.40570780634880066,-0.30884408950805664,-0.023708900436758995,-0.083295539021492,0.14898458123207092,-0.31946149468421936,-0.45322543382644653,0.21981270611286163,-0.2404422014951706,-0.009841409511864185,-0.14295914769172668,-0.07142487168312073,0.02812606655061245,0.2328202724456787,0.034315939992666245,-0.6131775975227356,-0.021710826084017754,0.03451051190495491,0.042598504573106766,-0.029539257287979126,0.2264610379934311,0.15479223430156708,-0.06603699177503586,0.21574679017066956,0.1386631429195404,0.220438614487648,0.15719719231128693,-0.10923485457897186,-0.20725798606872559,-0.049415431916713715,0.20789818465709686,-0.1391875445842743,-0.2758297622203827,0.07435930520296097,0.25629448890686035,-0.11406388133764267,-0.24384993314743042,-0.24825304746627808,0.06775572150945663,-0.025385767221450806,-1.2950507402420044,-0.18719851970672607,0.2364683300256729,0.5472641587257385,0.4577469825744629,-0.18323536217212677,-0.2814139127731323,-0.2415032684803009,0.06822095811367035,-0.020995648577809334,-0.0790296345949173,-0.19732828438282013,0.13808654248714447,0.10376383364200592,0.09986192733049393,-0.37658631801605225,-0.2232537418603897,-0.2523920238018036,0.46745824813842773,-0.1899268478155136,-0.1283043920993805,0.021144041791558266,-0.14384016394615173,-0.17181779444217682,-0.04518110305070877,-0.028741730377078056,-0.3095090687274933,0.17443357408046722,-0.2443823665380478,0.01118343323469162,0.40488213300704956,0.2148873507976532,0.19878031313419342,0.2188243269920349,0.0595121905207634,-0.22951771318912506,0.4526135325431824,-0.06977366656064987,-0.23547330498695374,-0.14924749732017517,-0.19803082942962646,0.1323363184928894,-0.15168268978595734,-0.1513144075870514,0.0038336552679538727,0.16205090284347534,0.06702952086925507,0.08159296959638596,0.023954428732395172,0.09616004675626755,-0.06286000460386276,-0.10261024534702301,-0.2411380261182785,-0.1943081021308899,0.11180272698402405,-0.152781680226326,0.03701755031943321,0.08236421644687653,0.01826881803572178,-0.16730186343193054,0.4745815396308899,-0.4183652102947235,0.2531857490539551,-0.5463290810585022,-0.36160698533058167,0.19449055194854736,-0.20291250944137573,0.1368570178747177,-0.1322495937347412,-0.26635926961898804,-0.13186205923557281,-0.10205399245023727,0.2084149867296219,-0.1861681342124939,0.011301047168672085,-0.389278382062912,-0.029344946146011353,0.33957767486572266,-0.4013923108577728,-0.16149498522281647,0.262753427028656,0.030156904831528664,0.23790574073791504,-0.025160744786262512,0.1285553127527237,-0.1330154836177826,0.004867298528552055,-0.042776454240083694,0.09969702363014221,0.102867491543293,0.4872092604637146,0.06924808025360107,-0.013996616937220097,0.748433530330658,-0.0862959548830986,0.19808094203472137,-0.2404627948999405,-0.030553964897990227,-0.08179930597543716,-0.06822053343057632,0.05523792281746864,-0.14201772212982178,-0.12089253216981888,0.17825773358345032,0.12346165627241135,0.10361698269844055,-0.15917322039604187,0.16607433557510376,0.24435171484947205,0.022391604259610176,-0.24096760153770447,0.18115167319774628,-0.19123923778533936,0.059302058070898056,0.03749556094408035,-0.12074518203735352,0.08985304087400436,-0.23073886334896088,0.05875657871365547,-0.16358409821987152,-0.014416653662919998,-0.12468838691711426,0.5156610012054443,-1.3361594676971436,0.34071147441864014,0.04539744183421135,-0.1163342297077179,-0.21118496358394623,-0.13646693527698517,0.15588082373142242,-0.06582582741975784,-0.0833946242928505,0.08914919197559357,0.14649175107479095,0.20204348862171173,0.20920106768608093,-0.19109253585338593,-0.04134247079491615,-0.15268467366695404,-0.14742106199264526,0.06119593232870102,0.24215520918369293,-0.20664149522781372,0.15616178512573242,-0.13376620411872864,-0.05023983493447304,0.20474810898303986,-0.058346256613731384,0.02348516136407852,-0.18038809299468994,0.2195867896080017,-0.033351995050907135,-0.18864154815673828,0.07555263489484787,-0.1834825724363327,-0.20468005537986755,0.015716595575213432,0.2045086771249771,-0.073015496134758,0.12142433971166611,0.2216731309890747,0.17115190625190735,-0.13533975183963776,-0.028278393670916557,-0.08120062202215195,-0.18513458967208862,0.033687982708215714,0.2107308804988861,0.2856932282447815,-0.07137081772089005,-0.10026077926158905,-0.09260010719299316,0.4374924600124359,-0.1421012580394745,-0.06877796351909637,0.08687127381563187,0.16935522854328156,-0.16334906220436096,0.29017895460128784,0.13535581529140472,-0.18079611659049988,-0.05556730926036835,0.2238055169582367,-0.19789648056030273,-0.0754149854183197,0.0846334770321846,-0.2260015308856964,0.14144285023212433,0.1343034952878952,0.16003504395484924,-0.16451263427734375,0.25696370005607605,-0.1529490351676941,0.25756773352622986,-0.2475883513689041,-0.019002920016646385,0.21467632055282593,0.0050244880840182304,0.24578066170215607,-1.3420847654342651,0.10221045464277267,0.007638109847903252,-0.048410363495349884,-0.008498274721205235,-0.07677911221981049,-0.05156722664833069,-0.1399669498205185,0.315091997385025,0.05234764888882637,-0.07059697061777115,-0.10615957528352737,-0.1650957614183426,-0.1788869947195053,-0.04155755788087845,-0.04564116150140762,0.11476167291402817,-0.11026238650083542,0.2056344449520111,-0.1810717135667801,0.0007330581429414451,0.2318974733352661,0.2565464675426483,-0.14946354925632477,0.04596736654639244,0.030473817139863968,-0.2673220932483673,-0.16108565032482147,0.2568037211894989,-0.38542887568473816,0.1357412189245224,0.3225816488265991,-0.11813395470380783,0.1628590226173401,0.027088291943073273,0.08389107882976532,0.3036978244781494,-0.022518513724207878,0.12246837466955185,-0.11007823050022125,-0.03684786707162857,-0.11762552708387375,-0.007365882862359285,-0.0659552738070488,0.022196171805262566,0.044280435889959335,0.1575896143913269,-0.04303516447544098,0.04968150332570076,-0.1888154149055481,-0.22908878326416016,0.12716048955917358,0.020460259169340134,-0.13820651173591614,-0.12316197156906128,0.05935223400592804,-0.33580175042152405,0.4933468699455261,-0.2441980540752411,0.16633093357086182,0.11808708310127258,-0.4047313928604126,0.12957021594047546,0.15485933423042297,-0.03125608712434769,0.14504213631153107,-0.09046319127082825,0.22862252593040466,-0.18501140177249908,-0.12166281044483185,0.06202830374240875,-0.42315638065338135,0.222200408577919,-1.1256153583526611,0.7634919881820679,-0.4322443902492523,0.2902349531650543,0.08805655688047409,-0.005611700471490622,0.004834446124732494,0.18818676471710205,-0.11497826129198074,-0.013831019401550293,-0.1319756954908371,-0.10245537757873535,-0.01804042048752308,0.13376498222351074,-0.008454933762550354,-0.3489678204059601,-0.012033303268253803,-0.16788716614246368,-0.12973953783512115,0.242097407579422,0.2712882459163666,-0.16924145817756653,-0.03441252186894417,-0.14614777266979218,-0.23111580312252045,-0.2627863883972168,0.3062150776386261,0.12360077351331711,0.43960466980934143,0.4850735366344452,-0.5618019700050354,-0.2888508141040802,0.317729651927948,-0.17239980399608612,0.2274152636528015,0.07003852725028992,0.19140999019145966,0.08602826297283173,0.13987231254577637,0.001207928522489965,-0.02070462331175804,0.14363299310207367,0.11902006715536118,0.457485556602478,0.37272948026657104,0.620129406452179,0.25001516938209534,0.17753495275974274,-0.2860502302646637,-0.24732159078121185,-0.08174815773963928,0.0031921537593007088,-0.02908199466764927,-0.005873288493603468,0.04458899423480034,-0.008968507871031761,0.08001856505870819,0.21651220321655273,0.39740535616874695,-0.7306030988693237,-0.15523336827754974,0.04735307767987251,0.08741334825754166,0.0902567207813263,-0.45182719826698303,-0.22530968487262726,-0.016197388991713524,0.09858562797307968,0.17971397936344147,0.2975023686885834,-0.1699143499135971,0.279628723859787,0.10962262004613876,0.5847790837287903,-0.4479456841945648,-0.6580660939216614,0.4574974477291107,0.2356337308883667,0.05950536951422691,0.2070290595293045,-0.12096527963876724,0.09591272473335266,-0.36657270789146423,0.05954889580607414,-0.07481731474399567,0.011681620962917805,0.10113417357206345,-0.052240967750549316,-0.1150330975651741,-0.9184458255767822,-0.5377841591835022,0.05348161607980728,-0.16886839270591736,-0.24967968463897705,0.03382318839430809,-0.2790308892726898,-0.013342651538550854,0.11456462740898132,0.1921437680721283,0.10101843625307083,-0.10350292176008224,0.1256251484155655,0.011772917583584785,-0.15891645848751068,0.19090549647808075,0.4772453010082245,-0.28109362721443176,-1.9095826148986816,0.10632895678281784,0.24205495417118073,0.09177463501691818,0.16165931522846222,0.2192055732011795,0.24780189990997314,0.1803307682275772,0.2494158297777176,0.15993206202983856,-0.13942548632621765,0.10380277037620544,0.23494073748588562,0.5216589570045471,-0.5004086494445801,0.27542948722839355,-0.0844867005944252,-0.3388133943080902,-0.014925576746463776,-0.07522521913051605,-0.006758108269423246,-0.22522002458572388,-0.3948060870170593,0.014398200437426567,-0.11642984300851822,0.1432061791419983,0.01014411635696888,0.4947914183139801,-0.055417951196432114,-0.18975962698459625,0.387541800737381,0.20018403232097626,-0.07362239807844162,-0.16860413551330566,-0.03322725370526314,-0.11249440163373947,-0.12461351603269577,-0.3755299150943756,0.019783899188041687,-0.2074979841709137,-0.04758448526263237,0.1495368629693985,-0.17943733930587769,-0.1739380806684494,-0.06299544125795364,-0.07073044031858444,0.043684497475624084,0.042839717119932175,0.13083043694496155,-0.1777668595314026,-0.018208734691143036,0.14430704712867737,0.22313202917575836,-0.018821774050593376,-0.14929775893688202,0.07417185604572296,0.31748872995376587,-0.2988336682319641,-0.6115573048591614,0.5015192031860352,0.06704388558864594,-0.1573038101196289,-0.15384268760681152,0.14448429644107819,-0.004304306581616402,0.18646562099456787,0.24540792405605316,0.016727816313505173,-0.022405149415135384,-0.0924452394247055,0.006170814856886864,0.11468961089849472,-0.5279001593589783,-0.06266682595014572,-0.3636222183704376,0.344603568315506,-0.2668357789516449,0.03179021552205086,-0.05726204812526703,-0.15359880030155182,0.15405088663101196,0.017616160213947296,0.15189333260059357,0.06822444498538971,-0.39707624912261963,0.07755094021558762,-0.048571761697530746,-0.1140151098370552,0.16386887431144714,0.1881096214056015,-0.22673626244068146,-0.02333454042673111,0.2118319720029831,0.09989568591117859,0.2173219919204712,-0.08843375742435455,-0.14233213663101196,0.22182506322860718,0.10752188414335251,0.24766376614570618,-0.10774746537208557,-0.7730253338813782,0.03151595965027809,-0.6898115873336792,0.1331508457660675,0.16985927522182465,0.008468524552881718,0.0266529843211174,0.2648504972457886,-0.08270979672670364,0.30988427996635437,-0.008169420063495636,-0.012330116704106331,0.028697583824396133,0.24031969904899597,0.06732150912284851,0.24574358761310577,-1.3749241828918457,0.3284231126308441,-0.24863258004188538,-0.014454305171966553,0.11601279675960541,0.10137181729078293,0.09223741292953491,0.08264382183551788,-0.037112895399332047,-0.052775789052248,0.2209843099117279,-0.04612355679273605,0.13080261647701263,-0.11324982345104218,-0.09842522442340851,-0.02460348606109619,-0.30169737339019775,-0.13660050928592682,-0.07362543791532516,-0.21217894554138184,-0.2446691393852234,0.48160579800605774,0.1504361927509308,0.047728799283504486,0.028123188763856888,-0.017940901219844818,-0.16524098813533783,0.16358225047588348,0.029454827308654785,-0.12035009264945984,-0.2488311380147934,-0.09985678642988205,0.08618763834238052,-0.23878662288188934,-0.25062865018844604,0.0327330157160759,-0.18590621650218964,-0.22600029408931732,-0.09937914460897446,-0.04154490679502487,-0.23442402482032776,-0.17230522632598877,0.016916880384087563,-0.2432715892791748,0.11849698424339294,0.16133293509483337,0.057449713349342346,0.28220003843307495,-1.50790274143219,-1.162550687789917,0.1298428475856781,0.08666814118623734,0.21140709519386292,0.13798540830612183,0.14533329010009766,-0.027961933985352516,0.10610026121139526,0.15043817460536957,-0.2414984256029129,-0.0039026967715471983,0.22413885593414307,-0.16966640949249268,-0.4564834535121918,0.11453865468502045,-0.5878414511680603,0.06705530732870102,-0.16267257928848267,0.13781887292861938,0.0008321825880557299,0.23978020250797272,-0.025705311447381973,-0.20814445614814758,-0.0013835772406309843,0.18933168053627014,-0.2209177315235138,-0.11507079005241394,0.22656892240047455,-0.043273959308862686,0.1068664938211441,-0.2481842190027237,-0.08114795386791229,-0.13102036714553833,0.2174748033285141,0.10706151276826859,-0.18819878995418549,0.041603296995162964,-0.002964428160339594,-0.10598480701446533,-0.1473500281572342,-0.08562969416379929,0.20331653952598572,-0.18498913943767548,-0.18382492661476135,-0.07960863411426544,0.004488546866923571,0.07023414969444275,0.007741719484329224,-0.06210442632436752,-0.15645761787891388,-0.046303972601890564,-0.10383749008178711,0.20840366184711456,-0.251130610704422,-0.1645931452512741,-0.9619521498680115,-0.328005850315094,0.5308545231819153,0.5570387244224548,-0.2514989376068115,-0.14778316020965576,0.23982350528240204,0.1334117352962494,0.16974234580993652,-0.029255088418722153,-0.07025206834077835,0.20585216581821442,-0.07180561125278473,0.06082742661237717,-0.09085077792406082,0.10965750366449356,0.1936817616224289,0.2327248603105545,-0.2347751259803772,-0.17069214582443237,-0.11381471902132034,-0.16455237567424774,0.20921579003334045,-0.06099328771233559,-0.20197641849517822,-0.11479444801807404,-0.14251859486103058,0.06689390540122986,-0.2631172239780426,-0.278868168592453,-1.1367536783218384,-0.7302468419075012,0.15179017186164856,-0.7484503984451294,0.12562114000320435,0.14574958384037018,0.10242535918951035,0.026155702769756317,0.23728427290916443,0.19117020070552826,0.20846928656101227,0.21631546318531036,0.17791086435317993,0.1679897904396057,-0.13873620331287384,0.15615564584732056,0.29232585430145264,-0.15027257800102234,-0.09320366382598877,0.033815473318099976,-0.3305779695510864,0.06761893630027771,0.02221156284213066,0.19945800304412842,-0.1964709460735321,-0.31844139099121094,0.14532813429832458,0.12318645417690277,-0.26901185512542725,-0.1645318567752838,-0.4411159157752991,-0.36484986543655396,-0.06607048213481903,0.2325960397720337,-0.10928882658481598,0.0256155077368021,0.2540668249130249,0.09053795784711838,-0.23481830954551697,0.11667584627866745,0.1341673880815506,0.11100328713655472,-0.3532826900482178,0.11453934758901596,0.1356285810470581,-0.47305533289909363,-0.09947073459625244,0.485266774892807,-0.9707652926445007,0.14608179032802582,0.12190548330545425,0.1198524609208107,0.22100476920604706,0.3639720678329468,0.2961251735687256,0.06169360503554344,0.37059730291366577,-0.1916375607252121,-0.08558488637208939,-0.03984348103404045,-0.07664906978607178,0.23829428851604462,0.12168211489915848,0.16613048315048218,0.17552797496318817,-0.19267283380031586,-0.02987952157855034,0.03767805173993111,0.06710492819547653,0.1326729655265808,-0.10263776034116745,-0.07780518382787704,0.21584302186965942,-0.06924587488174438,-0.17925429344177246,0.26443105936050415,0.27665048837661743,0.07904179394245148,-0.06287733465433121,-0.4105502963066101,-0.3529493510723114,0.15424217283725739,-0.15940465033054352,0.09262665361166,-0.17135074734687805,-0.09735264629125595,0.19320905208587646,0.010949760675430298,0.20509332418441772,0.13433609902858734,0.29409027099609375,-0.23646284639835358,-0.7156375050544739,-0.7124456763267517,0.028653385117650032,0.27396610379219055,-0.02439928986132145,0.031467318534851074,-0.10569759458303452,0.07561829686164856,0.18132005631923676,-0.18071408569812775,-0.15179185569286346,0.14094291627407074,0.03576426953077316,-0.016085028648376465,0.046129852533340454,-0.03923172131180763,-0.18037064373493195,-0.2410660982131958,0.16971813142299652,-0.030683981254696846,-0.09579044580459595,-0.06659438461065292,-0.14072629809379578,-0.07642354816198349,-0.22143898904323578,0.1930188238620758,0.10533224791288376,-0.13011391460895538,-0.2443959265947342,0.5572208166122437,-0.2750314772129059,-0.1007632240653038,0.06901699304580688,-0.41519320011138916,0.06181579828262329,-0.1115671843290329,0.15679383277893066,-0.10324869304895401,-0.10351881384849548,0.24940860271453857,-0.38886070251464844,-0.020920054987072945,0.14258325099945068,-0.20579616725444794,0.3920738399028778,0.3173375427722931,0.2857488691806793,-0.10643918067216873,0.15470664203166962,-0.0236083772033453,-0.3756963312625885,0.04967956617474556,0.1177760511636734,0.055371131747961044,0.2551400363445282,-0.1163954809308052,0.23366039991378784,0.11337317526340485,0.4145844876766205,0.37287262082099915,-0.5039191246032715,-0.6692880988121033,0.3292562663555145,-0.08265181630849838,-0.06927258521318436,-0.36427387595176697,-0.0659537985920906,0.015848178416490555,0.025462878867983818,0.1883377879858017,0.06755667179822922,-0.07948456704616547,0.019086254760622978,0.9419122338294983,-0.9276441931724548,-0.15559710562229156,-0.350877583026886,0.20177745819091797,0.1845657080411911,0.10483700037002563,0.06212769076228142,-0.09267135709524155,0.23092564940452576,0.07213015854358673,0.3435378968715668,0.10177181661128998,0.19325090944766998,0.1956925094127655,-0.41834449768066406,-0.15939010679721832,-0.19861538708209991,-0.10042311996221542,-0.03671590983867645,0.029078878462314606,-0.3753722608089447,-0.37265464663505554,-0.054260872304439545,0.07333319634199142,0.1709137111902237,0.2129591405391693,-0.06221357360482216,0.2572229504585266,-0.12040222436189651,-0.016042955219745636,-0.1639816164970398,0.5716016888618469,0.46161776781082153,0.39485061168670654,-0.008583743125200272,0.24828654527664185,-0.2318437397480011,-0.19645623862743378,-0.045424822717905045,-0.05680035799741745,-0.18136799335479736,-0.016115250065922737,-0.03312428668141365,-0.1787838190793991,0.24841880798339844,0.3735364079475403,0.18318413197994232,-0.11785625666379929,-0.48071470856666565,-0.3862464427947998,0.016520947217941284,0.11807529628276825,-0.0722641721367836,-0.035421356558799744,-0.04449470341205597,0.028886549174785614,-0.3036041855812073,-0.23370206356048584,0.23585493862628937,-0.15750256180763245,-0.06558237969875336,-0.2809799015522003,-0.409972608089447,0.05039934068918228,0.22322358191013336,-0.23642995953559875,-0.03573920950293541,0.05128968879580498,-0.13849008083343506,0.21974365413188934,0.24330464005470276,0.19894005358219147,-0.21258355677127838,0.10281773656606674,-0.7654878497123718,-0.07829798758029938,-0.0038127826992422342,-0.23826655745506287,0.004909847863018513,-0.16598816215991974,-0.038468893617391586,-0.07523639500141144,-0.17733581364154816,-0.039497267454862595,-0.11252699792385101,0.3703058362007141,0.05368942394852638,0.2907301187515259,-0.11762331426143646,0.1643516570329666,0.11202257126569748,0.12409055233001709,0.2390482872724533,-0.28796687722206116,-0.09709960967302322,-0.3667888641357422,-0.150814026594162,0.22929517924785614,0.39931392669677734,0.5249138474464417,0.616461992263794,-0.04077177494764328,-0.22144751250743866,0.277838796377182,0.1826578825712204,0.08330857008695602,-0.1769780069589615,0.22295069694519043,0.022773951292037964,0.15754319727420807,0.08406514674425125,0.12666183710098267,-0.23027193546295166,-0.13596409559249878,0.16759178042411804,-0.049165837466716766,-0.22988569736480713,0.22669412195682526,-0.01872151531279087,0.20808222889900208,-0.20160993933677673,0.0888456180691719,-0.09715411067008972,-0.1085527241230011,-0.05380181595683098,-0.09546993672847748,0.1413813829421997,-0.04900689423084259,0.19556830823421478,0.058865971863269806,-0.03987033665180206,-0.14903420209884644,-0.23622310161590576,-0.07527171075344086,-0.2388976663351059,-0.04778601601719856,0.004216915927827358,-0.01662665791809559,-0.1267303228378296,0.17910513281822205,0.14531108736991882,-0.06356362998485565,-0.10191456228494644,0.16222576797008514,0.2244366556406021,-0.23621420562267303,-0.05573558434844017,-0.023936083540320396,-0.09343305975198746,0.28297552466392517,0.10944119840860367,0.601641058921814,0.22008757293224335,0.08107998222112656,-1.5090229511260986,0.024761782959103584,0.18411295115947723,0.12894436717033386,0.27628374099731445,0.23217570781707764,-0.04359002038836479,0.09794050455093384,0.12024902552366257,-0.0537557527422905,0.20478378236293793,0.004253081977367401,-0.19314825534820557,-0.14155082404613495,0.09600429981946945,-0.11163395643234253,0.0620490238070488,0.2539309561252594,0.08765444904565811,-0.024139445275068283,0.06448742002248764,-0.14865835011005402,-0.21674975752830505,-0.19388534128665924,-0.2164526730775833,0.10884002596139908,0.13107581436634064,0.02848079614341259,-0.11113344877958298,0.28353145718574524,-0.22178705036640167,-0.008479133248329163,-0.16439680755138397,-0.2986541986465454,-0.19339099526405334,-0.7645479440689087,-0.7851867079734802,0.25561216473579407,-0.05496051907539368,-0.08570478111505508,-1.480855941772461,0.0025779667776077986,-0.8282445073127747,0.23123480379581451,0.2239971160888672,0.11562743037939072,0.15287356078624725,-0.026329167187213898,0.2109479159116745,0.06839080154895782,0.15545080602169037,0.1397838294506073,0.10392162948846817,0.11665615439414978,-0.04675576090812683,0.20066635310649872,0.15815314650535583,-0.38266521692276,-0.07686934620141983,0.5247676372528076,0.07257699221372604,-0.40298837423324585,-0.10038396716117859,0.0639546737074852,-0.1261880099773407,-0.28069552779197693,0.1959628015756607,0.11499660462141037,-0.12197203934192657,-0.03359851986169815,-0.027282483875751495,0.05989423021674156,0.00916992872953415,-0.15614384412765503,0.04778693988919258,0.0067467959597706795,0.016680799424648285,-0.09829514473676682,0.06610573083162308,-0.2085888683795929,0.07713095843791962,0.13981492817401886,-0.028390277177095413,-0.20036627352237701,-0.000937804754357785,0.000366169901099056,-0.2229340523481369,-0.1825215071439743,0.238615483045578,0.19288329780101776,0.1429932713508606,0.17876818776130676,0.09929566830396652,0.14521008729934692,0.17090938985347748,-0.06026657298207283,-0.0327974371612072,0.184006467461586,-9.288654109695926e-05,-0.16790519654750824,-0.15848910808563232,0.23796595633029938,0.26099705696105957,0.4513022005558014,0.11928445845842361,0.39168867468833923,-0.35567986965179443,-0.13325953483581543,-0.18426693975925446,0.1439768522977829,-0.0058457618579268456,-0.2784426808357239,0.09162962436676025,-0.1017327755689621,-0.13215526938438416,0.09948554635047913,0.047225240617990494,-0.1847996562719345,-0.16996446251869202,0.1209603026509285,0.17903028428554535,0.003879711963236332,-0.12958809733390808,0.12457630038261414,0.04500596225261688,-0.2258451282978058,-0.16722315549850464,0.03929771110415459,0.1424645185470581,-0.10005267709493637,0.34754252433776855,-0.3562922775745392,0.39168813824653625,0.3852071166038513,0.2606089413166046,0.1856967806816101,-0.07616561651229858,-0.2084639072418213,-0.0469641238451004,0.04769432917237282,-0.07459526509046555,0.15221288800239563,-0.09354770183563232,-0.2581453323364258,-0.11443781852722168,-0.8155796527862549,0.48490872979164124,-0.2510262429714203,-0.37589409947395325,-0.033423181623220444,-0.16317646205425262,-0.058252688497304916,0.21746358275413513,-0.007977434433996677,0.22553205490112305,0.2368343025445938,0.17204280197620392,0.06994672864675522,-0.10839152336120605,0.21371665596961975,0.6060577630996704,0.09180765599012375,0.47806498408317566,-0.47940635681152344,0.008318422362208366,-0.10227791965007782,-0.19266876578330994,0.07322501391172409,-0.08292233943939209,-0.05725173279643059,-0.25877922773361206,0.04359494894742966,-0.18443836271762848,-0.016308460384607315,0.12928733229637146,0.13520914316177368,0.07998853176832199,-0.18551093339920044,-0.2746182978153229,0.1350574642419815,0.02313162200152874,0.19345933198928833,0.1492169052362442,0.1893477439880371,-0.27170127630233765,0.27494844794273376,-0.15853676199913025,-0.08924032002687454,-0.022079013288021088,-0.06653028726577759,0.027135411277413368,0.3315483629703522,-0.21410422027111053,0.054497379809617996,-0.557560384273529,-0.10933967679738998,0.2676663398742676,0.15811441838741302,0.25159958004951477,0.16597440838813782,-0.08715712279081345,0.02870224043726921,-0.22808097302913666,0.23738841712474823,0.066229909658432,-0.6224387288093567,0.8059489727020264,-0.1560068428516388,0.009957971051335335,0.003718835301697254,0.08129468560218811,-0.021908188238739967,-0.17976200580596924,-0.20862331986427307,-0.20460675656795502,-0.12404964119195938,0.1623999923467636,0.16988618671894073,-0.12355512380599976,-0.0011000813683494925,-0.07446977496147156,-0.13802693784236908,-0.04537827521562576,-0.08953807502985,0.14421908557415009,-0.1279493272304535,0.03969929367303848,-0.14560401439666748,-0.08053451776504517,0.203057661652565,-0.12665784358978271,-0.015512987039983273,0.24638988077640533,0.08832236379384995,-0.13132160902023315,-0.18007279932498932,-1.0254274606704712,0.17134487628936768,0.2584773004055023,-0.32827073335647583,0.39991843700408936,-0.2628716230392456,-0.11806469410657883,0.1510946899652481,0.0690029039978981,0.19073188304901123,0.023380547761917114,-0.00463611027225852,-0.18907928466796875,0.06792435050010681,-0.20866812765598297,-0.00013052554277237505,-1.2237013578414917,-0.8170796036720276,0.09088147431612015,0.0473095141351223,0.205237478017807,0.26430654525756836,0.1269444227218628,0.18314361572265625,0.07008419930934906,0.07186827063560486,0.10180079191923141,0.11028112471103668,-0.02823091857135296,0.05907958000898361,-0.6310428380966187,-1.6079468727111816,0.011221780441701412,-0.04533658176660538,0.06741524487733841,-0.013938874006271362,-0.039954107254743576,0.09632769972085953,0.24045529961585999,-0.0060311597771942616,0.18137596547603607,0.13709624111652374,0.16872340440750122,0.04966864362359047,0.22467581927776337,0.23031382262706757,-0.08215682208538055,0.18734870851039886,-0.34815436601638794,0.15521249175071716,-0.0880805104970932,-0.01095668040215969,-0.24056442081928253,-0.45028790831565857,-0.13758808374404907,-0.038355834782123566,0.24390149116516113,-0.25912895798683167,0.09581261873245239,-0.6353678703308105,-1.241292953491211,-0.03670395538210869,0.08964724093675613,0.11490542441606522,-0.09047576040029526,0.18275092542171478,0.3044317364692688,0.08194246888160706,0.21127957105636597,0.08749240636825562,0.045143790543079376,-0.01602284610271454,0.06775982677936554,-0.17060492932796478,-0.4433174133300781,0.05004098638892174,-0.21673794090747833,0.36654242873191833,-0.19832442700862885,0.21805226802825928,-0.3596615195274353,0.03128279373049736,0.06977653503417969,0.22338351607322693,0.1985156238079071,0.17731328308582306,0.06138842925429344,-0.22125722467899323,0.09977788478136063,-0.4495016038417816,0.2658189535140991,0.4163499176502228,0.275911808013916,-0.15212586522102356,-0.41192200779914856,0.12458767741918564,0.09767678380012512,0.08571871370077133,0.16662999987602234,0.18750089406967163,-0.051349032670259476,-0.17510583996772766,0.10394260287284851,0.03861214220523834,-0.15051321685314178,0.024948859587311745,-0.19583480060100555,-0.0756969302892685,-0.1012347936630249,0.2261301875114441,-0.23222118616104126,-0.15234574675559998,-0.2524785101413727,0.06506848335266113,-0.1985301822423935,0.08348718285560608,-0.17924648523330688,-0.16529594361782074,-0.1318061798810959,0.21742375195026398,0.36294621229171753,0.6310855150222778,-0.6106114387512207,-0.5807370543479919,-0.0812220647931099,-0.20558907091617584,-0.18512384593486786,0.12886683642864227,0.15033459663391113,0.10984903573989868,0.05641251429915428,-0.0831122100353241,-0.058508969843387604,-0.007356757298111916,-0.3238677978515625,-0.06803787499666214,0.19156931340694427,-0.9141349196434021,0.4059500992298126,-0.04448244720697403,-0.10785070061683655,0.15797340869903564,-0.0692845955491066,0.09351679682731628,0.2570701837539673,-0.0165665615350008,0.06617443263530731,0.038868460804224014,0.18363963067531586]},"input_layer.0.bias":{"shape":[128],"values":[-0.07917063683271408,-0.14519208669662476,-0.02019316516816616,0.22933222353458405,-0.07248630374670029,0.2003079056739807,-0.0019180855015292764,0.040213778614997864,-0.006829527206718922,0.007002729456871748,-0.2455044388771057,-0.22552363574504852,0.021451439708471298,0.05822465941309929,0.1443847268819809,0.010387139394879341,0.1372627317905426,0.06463035941123962,-0.22268812358379364,-0.22673697769641876,-0.19999082386493683,-0.001601934083737433,-0.16316208243370056,-0.05657212808728218,-0.03860485926270485,0.04188073053956032,0.014805926010012627,0.1304500848054886,0.2235877364873886,-0.1646183878183365,0.010941287502646446,0.0035695878323167562,0.12454674392938614,-0.0562480129301548,-0.1013713926076889,-0.176643505692482,0.1308135986328125,-0.06410698592662811,-0.10245636850595474,0.04143180325627327,0.15707065165042877,0.009179772809147835,-0.1819046437740326,0.12925516068935394,-0.08658421784639359,-0.07260382920503616,-0.18141865730285645,-0.1421954333782196,-0.20200970768928528,-0.1489347517490387,-0.19246946275234222,-0.05199003219604492,0.12757426500320435,-0.1958026885986328,0.00047883065417408943,-0.1032412201166153,0.07440260052680969,0.14936186373233795,-0.06102609634399414,-0.08818645775318146,-0.20828871428966522,-0.12291187047958374,0.12367574870586395,0.05937325581908226,0.14463764429092407,-0.04604305326938629,0.14050135016441345,-0.22983264923095703,0.08858801424503326,0.16482117772102356,-0.25533637404441833,-0.0924253985285759,0.15422263741493225,-0.014674040488898754,-0.1375298798084259,0.17290213704109192,0.003300679614767432,0.010106555186212063,-0.07837316393852234,0.16715554893016815,0.1047954261302948,0.06380222737789154,0.01874115876853466,0.05784830078482628,0.17611223459243774,-0.10581222176551819,-0.06865700334310532,0.08795087039470673,-0.12501633167266846,0.1352424919605255,-0.1496746838092804,0.0749574676156044,-0.1936265230178833,0.10450050979852676,0.25703611969947815,0.012998747639358044,-0.0578533336520195,0.13307054340839386,-0.1593642234802246,-0.18724612891674042,-0.21985934674739838,-0.15883275866508484,-0.00220110802911222,-0.11697787046432495,0.07916395366191864,0.0070805978029966354,0.16793771088123322,-0.11185581982135773,-0.07058393210172653,0.20391547679901123,-0.08243754506111145,0.255378782749176,-0.08988542854785919,0.011853314004838467,-0.07927937060594559,0.057415250688791275,0.10764512419700623,-0.1373968869447708,0.09214209765195847,-0.037180859595537186,-0.08021609485149384,-0.032560475170612335,0.188904270529747,0.1305268108844757,0.09224168211221695,0.04515496641397476,0.128190279006958,-0.1192677915096283]},"blocks.0.layers.0.weight":{"shape":[128,128],"values":[-0.04616668447852135,-0.025499967858195305,-0.05715639144182205,0.02610268071293831,-0.0032184498850256205,-0.03915642201900482,-0.008967057801783085,-0.014072725549340248,0.06479881703853607,0.0788506343960762,-0.06799492985010147,0.03236871585249901,0.03410561755299568,0.02151263691484928,-0.004851384554058313,0.009567860513925552,0.0303086806088686,0.07451749593019485,-0.08466318249702454,-0.03351590037345886,-0.05941718816757202,-0.04284922406077385,0.017341339960694313,0.06019289419054985,-0.06678984314203262,0.04474538937211037,0.06322265416383743,-0.055418211966753006,0.009398898109793663,-0.04535125941038132,0.01677374355494976,-0.05056484043598175,-0.04684118926525116,-0.05131544545292854,-0.07365638762712479,0.07048449665307999,-0.02302142046391964,-0.01277859415858984,-0.043962858617305756,0.049593400210142136,-0.06342793256044388,-0.036183327436447144,-0.06894657015800476,-0.0868854820728302,0.06765931099653244,-0.07695569097995758,-0.01219008956104517,-0.03691224753856659,0.03235023096203804,0.023615814745426178,-0.07682225108146667,0.07932864874601364,-0.10140539705753326,0.008735797367990017,0.0012123847845941782,-0.020470501855015755,0.04779306426644325,0.06283490359783173,0.0013934624148532748,-0.041765954345464706,0.05366639792919159,0.048379454761743546,0.0074849314987659454,-0.03314534202218056,-0.009294276125729084,0.06603974848985672,0.015162216499447823,-0.017405593767762184,-0.0716245174407959,-0.06027242913842201,0.06378647685050964,-0.010737688280642033,-0.0161652322858572,0.0233977772295475,-0.05810241773724556,-0.012334677390754223,-0.036290138959884644,0.0462212972342968,0.07188189029693604,0.04419546201825142,0.06584776937961578,-0.08249267935752869,-0.03135400637984276,-0.0004997876822017133,-0.0871630311012268,0.02395200915634632,-0.06939413398504257,0.027639301493763924,0.07148664444684982,-0.08723798394203186,0.06389912962913513,0.028120968490839005,-0.06864071637392044,0.08455268293619156,-0.07650145888328552,-0.07177955657243729,-0.04925554245710373,-0.014875437133014202,0.01186227798461914,-0.02591405063867569,-0.08372798562049866,-0.010196470655500889,0.056416913866996765,0.06800282001495361,0.05072276294231415,0.003561608726158738,0.009389546699821949,-0.06808875501155853,0.0357666052877903,-0.08648376911878586,-0.036476388573646545,-0.026064787060022354,0.06830601394176483,-0.013502542860805988,-0.04023638367652893,0.00417486485093832,-0.06858290731906891,-0.023388803005218506,0.012233720161020756,-0.016794640570878983,-0.018649667501449585,0.057231612503528595,-0.07546891272068024,-0.05657109245657921,0.07370984554290771,0.017575634643435478,-0.026203271001577377,0.03493274748325348,0.0531223900616169,-0.0147571275010705,-0.03679206967353821,-0.014435083605349064,0.024357426911592484,-0.01895112171769142,0.05139140784740448,-0.07972238957881927,-0.05100429058074951,0.06733128428459167,0.011589244939386845,0.017786242067813873,0.029045183211565018,-0.028558598831295967,-0.03532185032963753,0.017761370167136192,-0.023412983864545822,-0.04419534280896187,0.011671326123178005,0.021366829052567482,-0.007974393665790558,-0.05972595885396004,-0.013351846486330032,-0.05004144459962845,0.04649493470788002,-0.06620281934738159,0.06271658092737198,0.027465812861919403,-0.08327648788690567,0.06554241478443146,-0.08735977113246918,-0.012748604640364647,-0.06284062564373016,-0.07598764449357986,0.008751180954277515,-0.04283053055405617,0.05616087093949318,-0.07713126391172409,0.07331368327140808,0.04558253288269043,0.06966450065374374,-0.02585761621594429,-0.05412741377949715,-0.0663694366812706,0.06577825546264648,-0.051573656499385834,-0.010876699350774288,-0.02130776457488537,0.015193463303148746,-0.07247897982597351,0.06354568153619766,-0.06535127758979797,0.07925586402416229,-0.03455963358283043,-0.03943318873643875,-0.012136531993746758,0.018463920801877975,-0.024050327017903328,-0.09582193940877914,0.054461318999528885,0.07984308898448944,0.037000712007284164,0.0787908211350441,0.016405345872044563,-0.014599747955799103,-0.07740043103694916,-0.07720118761062622,-0.06080444157123566,-0.02241349220275879,0.04374619200825691,-0.03644227981567383,-0.011114595457911491,-0.008934042416512966,-0.06538614630699158,-0.0023911038879305124,0.0778723731637001,0.06290245801210403,0.06726759672164917,-0.008711089380085468,-0.006123496685177088,0.04827006533741951,-0.036989811807870865,-0.0357959158718586,0.06786111742258072,0.005043043754994869,-0.059629734605550766,0.06671874970197678,0.006959021557122469,0.0472421869635582,-0.0844283327460289,0.008759578689932823,0.04634793475270271,-0.020435886457562447,-0.057734835892915726,0.07066533714532852,0.03342887759208679,0.017610711976885796,0.013187204487621784,0.0019492889987304807,0.0431508794426918,-0.019309714436531067,-0.05197867006063461,0.026042111217975616,0.023556292057037354,0.03362840786576271,-0.017464447766542435,-0.019411027431488037,-0.007018682546913624,0.023293813690543175,-0.06777489930391312,-0.08233252912759781,0.03304922953248024,-0.04834228381514549,-0.014900973998010159,0.024478444829583168,0.004682075697928667,0.056929945945739746,0.01157991960644722,0.014176634140312672,-0.015558666549623013,0.005362248979508877,0.03238452970981598,0.05267934128642082,-0.09141122549772263,-0.044497858732938766,-0.0792635902762413,-0.04289913922548294,0.046168841421604156,-0.08369746059179306,-0.07914689928293228,0.05112822353839874,-0.052145931869745255,0.0573946051299572,0.020567458122968674,0.02217426709830761,0.06299805641174316,-0.08888694643974304,0.0646756961941719,0.028638802468776703,-0.059179216623306274,0.021493280306458473,-0.03177191689610481,-0.03545289486646652,-0.009566428139805794,-0.04164667800068855,0.07008040696382523,0.07602537423372269,-0.00942272786051035,-0.07833006232976913,-0.005404031835496426,0.0058366903103888035,0.059029966592788696,0.0028422330506145954,0.018573250621557236,0.016274938359856606,-0.057251013815402985,-0.06189803034067154,-0.07894819974899292,-0.0006936995778232813,0.020097894594073296,-0.013412193395197392,0.0797455757856369,-0.016848517581820488,-0.05762511491775513,0.007521258667111397,-0.03196348249912262,-0.012104436755180359,0.07844938337802887,-0.009632847271859646,0.07716024667024612,0.011791201308369637,-0.04005226865410805,0.057351984083652496,-0.056294459849596024,0.0029229128267616034,0.012691724114120007,0.03964637964963913,-0.08150168508291245,0.004332785494625568,-0.022872818633913994,0.050097618252038956,0.029712388291954994,0.035400453954935074,0.053093697875738144,-0.02691151760518551,-0.012771064415574074,0.06370683759450912,-0.07118938118219376,-0.06813882291316986,-7.732497033430263e-05,-0.03498772904276848,-0.001958999549970031,0.07078061997890472,-0.017554285004734993,-0.0753122940659523,-0.04015402868390083,0.07462415099143982,-0.0265657901763916,-0.03873100131750107,0.0327216275036335,0.0037844215985387564,-0.07787953317165375,0.07355797290802002,0.04340460151433945,0.06965247541666031,0.03865334764122963,-0.029775144532322884,-0.03593072667717934,0.0428096167743206,-0.025106415152549744,0.0173161793500185,-0.09272400289773941,-0.04366699978709221,0.03280630335211754,-0.01149091124534607,-0.049620307981967926,-0.07704761624336243,0.048987288028001785,-0.017758594825863838,-0.09394869953393936,0.07803753763437271,0.04298679158091545,-0.05281785875558853,-0.07162640988826752,0.07812860608100891,-0.006776490714401007,-0.05910249426960945,0.050812121480703354,-0.01839854195713997,0.00604853592813015,-0.053108323365449905,-0.07481380552053452,-0.05865004286170006,-0.016792776063084602,-0.0711132287979126,0.0870656669139862,0.0009558469755575061,-0.03381253778934479,0.03490752354264259,-0.08428715914487839,-0.05259832739830017,0.025796938687562943,-0.07504961639642715,0.036873266100883484,0.00023199187126010656,-0.07364817708730698,-0.09476084262132645,0.02052149921655655,0.0346146859228611,-0.024618297815322876,-0.08469555526971817,-0.05802832543849945,0.0022797908168286085,0.0032124905847012997,0.015475714579224586,0.008412554860115051,-0.004629825707525015,0.04661954194307327,0.08568723499774933,0.07356036454439163,0.08026569336652756,-0.029806027188897133,-0.03014291822910309,-0.009769533760845661,0.026098622009158134,0.03575238958001137,-0.007872261106967926,-0.05704168602824211,-0.06663834303617477,0.08504243940114975,-0.02373838797211647,-0.011934679932892323,-0.054119035601615906,-0.04379406198859215,0.01940092071890831,0.03720264136791229,-0.03491665795445442,-0.032507967203855515,0.06996697932481766,-0.0454961396753788,-0.06589453667402267,-0.013777297921478748,0.08405475318431854,0.0192196574062109,0.012200236320495605,-0.01099911518394947,0.05518222227692604,-0.043784428387880325,0.05987760052084923,0.020868558436632156,0.009820963256061077,0.012155434116721153,-0.05446065589785576,0.06559596210718155,0.04639692232012749,-0.06907940655946732,-0.08224610239267349,-0.02274106815457344,0.05867032706737518,-0.043491046875715256,0.0818709209561348,-0.04441418871283531,-0.07979074120521545,0.038855597376823425,-0.05336630344390869,-0.013920723460614681,-0.027543341740965843,-0.007016933523118496,-0.07696855813264847,-0.08101923763751984,0.03797076642513275,-0.010009433142840862,-0.05326788127422333,-0.0022500804625451565,-0.08062425255775452,0.02343708835542202,0.04195055738091469,0.08566981554031372,-0.07195693999528885,-0.01071138959378004,0.04791724309325218,0.08095378428697586,-0.06283517181873322,0.0375363826751709,0.036467041820287704,0.053236089646816254,-0.06088569015264511,0.06302471458911896,-0.03847341984510422,-0.05435667186975479,0.017537470906972885,0.07482665777206421,-0.05848200246691704,0.04714058339595795,-0.010116402059793472,0.02819152921438217,0.06889846920967102,0.023973895236849785,-0.0733254924416542,-0.026586271822452545,0.017530400305986404,-0.07451289147138596,0.01468187477439642,-0.04741113260388374,-0.017556922510266304,0.03159480169415474,-0.07108601927757263,-0.05669592693448067,0.04028896987438202,-0.08736900240182877,0.06077716127038002,-0.06810375303030014,-0.0014224231708794832,0.018132025375962257,0.0348520390689373,-0.05480912700295448,0.011882007122039795,0.03803356736898422,0.0757608637213707,-0.06646593660116196,-0.043918877840042114,0.02572363056242466,-0.00283592171035707,-0.059596188366413116,-0.07434145361185074,-0.07843194156885147,-0.06179891899228096,-0.03760765120387077,-0.06132615730166435,-0.0774877592921257,0.00689316913485527,0.05178523808717728,-0.04164861887693405,0.008832303807139397,-0.0010888308752328157,0.04129032790660858,-0.06124725937843323,0.004193205386400223,0.08245057612657547,0.06305141746997833,-0.087552510201931,-0.013293272815644741,0.000823137117549777,-0.029160158708691597,-0.0580192431807518,-0.061452269554138184,0.05868050456047058,0.03698503598570824,0.021309608593583107,0.027747832238674164,-0.05420123413205147,-0.06991865485906601,0.15054471790790558,-0.0516289584338665,0.02569013461470604,-0.003015833208337426,0.04854842275381088,-0.04061093181371689,0.025685863569378853,-0.09541734308004379,-0.026707900688052177,-0.028353223577141762,0.053836703300476074,-0.032079555094242096,-0.08771388977766037,0.07750196754932404,-0.02073456160724163,0.061379097402095795,-0.02482137270271778,0.07065892964601517,0.08199984580278397,0.08960407972335815,-0.16095352172851562,0.06189099699258804,0.19989459216594696,0.004604341462254524,-0.08548060804605484,-0.17820358276367188,-0.08739958703517914,0.10841294378042221,0.08325079083442688,0.07374995201826096,0.003172091906890273,-0.006999807432293892,0.07101969420909882,0.02178671397268772,-0.029648883268237114,-0.08249089866876602,-0.020818274468183517,0.05550571158528328,0.024170098826289177,-0.09012025594711304,-0.010221906006336212,-0.07278142124414444,0.004991699010133743,0.011514528654515743,-0.0829617902636528,0.023510552942752838,-0.13670119643211365,-0.0005572038935497403,0.0365951769053936,-0.032178837805986404,0.07215578109025955,0.14683330059051514,0.15206998586654663,-0.1807100772857666,-0.05554337427020073,-0.10696808993816376,-0.07762020826339722,0.0070763505063951015,0.1836974322795868,-0.07747446745634079,-0.07691483944654465,-0.02353757433593273,-0.029084663838148117,-0.09191747009754181,-0.21481242775917053,0.09327911585569382,-0.010029726661741734,0.22422614693641663,0.050908103585243225,0.06826601177453995,0.004181141033768654,-0.10314390063285828,-0.0456155389547348,-0.3372306525707245,0.056822892278432846,-0.030695581808686256,-0.02318839728832245,0.07273856550455093,0.05114669352769852,0.029849758371710777,0.05453093722462654,0.05455410107970238,0.25797802209854126,0.07140953838825226,-0.053899358958005905,-0.06502162665128708,0.10936959832906723,0.09951286762952805,-0.03358015418052673,-0.12013255804777145,0.169056698679924,0.006947848480194807,-0.07208216935396194,0.04770379140973091,0.10248225927352905,0.015435312874615192,-0.0002897241211030632,-0.04777901992201805,0.019704926759004593,-0.022033538669347763,-0.006520664785057306,0.11764955520629883,0.005228010006248951,-0.03375815227627754,0.09916546940803528,0.06556224822998047,0.004266239702701569,0.06139253079891205,0.14767353236675262,0.010130205191671848,-0.05789307504892349,0.011382545344531536,-0.15208810567855835,0.04348282143473625,-0.3789479732513428,0.08972565829753876,-0.038561560213565826,0.008759821765124798,-1.4652036952611525e-05,-0.049735359847545624,0.03292031213641167,-0.02065734937787056,0.08575102686882019,0.0018811164190992713,-0.05567074567079544,0.04113592207431793,0.045942265540361404,-0.020564040169119835,0.07116328924894333,-0.0558917410671711,0.03768806904554367,0.05013939365744591,0.04387638345360756,-0.030817212536931038,0.025206374004483223,-0.07058035582304001,-0.07508309185504913,-0.030128007754683495,-0.011071650311350822,0.06557995080947876,0.06413048505783081,0.05988084524869919,-0.040459442883729935,-0.07628834247589111,-0.08285750448703766,0.015236853621900082,-0.09550248086452484,-0.09990359842777252,-0.06086873263120651,-0.07457595318555832,-0.031106999143958092,-0.06077001988887787,-0.06060017645359039,0.07946192473173141,-0.016643831506371498,0.07327087968587875,-0.014053038321435452,-0.04709163308143616,-0.025853201746940613,-0.0951584205031395,-0.08889395743608475,0.09709722548723221,-0.027212385088205338,-0.10048633068799973,0.05978012457489967,-0.018005890771746635,-0.05909444019198418,-0.10616418719291687,-0.07417654991149902,-0.07745311409235,0.06622321158647537,0.06089252978563309,-0.029765693470835686,-0.07528045028448105,-0.05689487233757973,-0.08972285687923431,0.031136661767959595,-0.033621493726968765,-0.028223171830177307,-0.044903334230184555,0.044471703469753265,0.08128899335861206,-0.02487824857234955,-0.07510770112276077,-0.056254807859659195,-0.005222787614911795,-0.07308363169431686,0.08619602024555206,-0.031224705278873444,0.04037443920969963,-0.04949965700507164,-0.018766574561595917,-0.0008997627883218229,-0.10885236412286758,0.0405183881521225,-0.02283228561282158,-0.003987648990005255,-0.017514679580926895,0.0506155900657177,0.06095816195011139,0.019907040521502495,-0.02593388594686985,-0.03376120328903198,0.019376248121261597,-0.0468488410115242,0.0364849753677845,-0.059869784861803055,0.037489790469408035,0.06774637848138809,0.043045178055763245,-0.021262332797050476,0.026820840314030647,-0.10219021886587143,0.028313858434557915,-0.056643564254045486,0.037886157631874084,-0.045191798359155655,-0.06693912297487259,-0.034794509410858154,0.0584636889398098,-0.04803695157170296,-0.015574218705296516,0.03302257880568504,0.008902045898139477,-0.07751090824604034,-0.16610468924045563,-0.05867542326450348,0.08147136121988297,-0.0627957358956337,0.03317750245332718,0.0632191002368927,-0.045666761696338654,-0.040110450237989426,-0.05304570868611336,0.04389268904924393,-0.024177996441721916,-0.004846353083848953,0.038314055651426315,0.009891915135085583,-0.03706381469964981,-0.028957590460777283,0.019225580617785454,0.0022383297327905893,0.002171875908970833,-0.04845554754137993,0.07239893823862076,-0.024723105132579803,-0.04524312540888786,-0.07927899807691574,-0.06401923298835754,0.0027478875126689672,-0.08933200687170029,-0.10075289011001587,0.08400639146566391,-0.007906695827841759,0.12181934714317322,-0.07043004781007767,-0.040610942989587784,-0.04347695782780647,-0.017748720943927765,-0.007478483486920595,0.08428891003131866,-0.03616009280085564,0.07952386140823364,0.1926453411579132,0.17264193296432495,0.06540168076753616,0.009348244406282902,-0.005566781852394342,0.02854749746620655,-0.0036049934569746256,0.007678089663386345,0.030368804931640625,-0.1135333999991417,-0.1099177896976471,-0.03252224251627922,0.11068546772003174,-0.043693434447050095,-0.12147160619497299,0.0571296326816082,-0.01355428621172905,0.021977992728352547,-0.03597914054989815,0.023224903270602226,-0.07068607956171036,0.030570972710847855,0.009471314027905464,0.03482724726200104,0.040821075439453125,-0.13774150609970093,0.0381399467587471,0.07984752207994461,0.11702528595924377,-0.07525428384542465,-0.03343738988041878,0.07044540345668793,0.025801602751016617,-0.04079967364668846,0.032954320311546326,-0.08352027833461761,-0.13813617825508118,-0.05195595324039459,0.010735711082816124,-0.09279414266347885,-0.16484275460243225,-0.10989734530448914,0.012912338599562645,-0.09539109468460083,-0.08818017691373825,0.12398099154233932,0.0681738555431366,-0.028079405426979065,-0.1076940968632698,0.0585479810833931,-0.010974833741784096,0.006680232938379049,0.03769361600279808,0.10052821785211563,-0.03059345670044422,0.010608090087771416,0.24632717669010162,-0.11843321472406387,0.021367967128753662,0.07036972045898438,-0.03139258921146393,0.048730719834566116,0.0030032629147171974,0.08953267335891724,0.0065826610662043095,0.015984732657670975,0.09211079031229019,0.016112877056002617,0.10648738592863083,0.021929152309894562,0.016653085127472878,0.06476674228906631,0.01487075537443161,-0.07757682353258133,-0.0966670885682106,-0.13186508417129517,0.11175249516963959,-0.07062594592571259,-0.059649959206581116,-0.11732997745275497,0.029553331434726715,-0.11862850189208984,-0.06485871970653534,0.050928764045238495,-0.08095689117908478,0.07980909943580627,0.15315847098827362,-0.017343837767839432,0.1688646674156189,-0.12650679051876068,0.018573559820652008,-0.038967423141002655,-0.011821147054433823,-0.12027792632579803,-0.040980610996484756,0.07739011943340302,-0.023474425077438354,-0.0007006178493611515,-0.06433441489934921,-0.11980990320444107,-0.07562987506389618,-0.013239261694252491,-0.015526135452091694,0.025465361773967743,0.08725788444280624,0.024375783279538155,0.272773802280426,-0.034217312932014465,-0.08862373977899551,0.036181580275297165,-0.05839526653289795,0.08065944164991379,-0.02199677564203739,-0.04168647527694702,0.07251013815402985,0.0348694808781147,-0.015021669678390026,-0.013797917403280735,-0.01920078508555889,0.006190465297549963,0.08596072345972061,-0.07029924541711807,0.0799437165260315,0.059439633041620255,7.589914457639679e-05,-0.13055498898029327,0.05734400078654289,-0.16998380422592163,0.28395357728004456,-0.093165323138237,0.016876112669706345,-0.08690852671861649,0.04230161011219025,0.06573580205440521,0.06629189103841782,0.01748097874224186,0.05213712155818939,0.02278073877096176,-0.020338023081421852,0.07179491966962814,-0.03502204269170761,0.009311649948358536,-0.037794116884469986,-0.07475221902132034,0.016548888757824898,-0.03805810585618019,0.013717859983444214,0.10818850994110107,0.06147921457886696,0.08314887434244156,0.0027419154066592455,-0.08547423779964447,-0.09693253040313721,-0.03629281744360924,-0.001048127538524568,-0.12167692184448242,0.002978110918775201,-0.001646827207878232,0.0510709322988987,-0.03912896290421486,0.011930813081562519,-0.05632911995053291,0.03185035660862923,-0.06844577193260193,0.08548425883054733,-0.04034597426652908,-0.08589722961187363,-0.01104198768734932,0.03730323910713196,-0.004594340454787016,-0.08860281109809875,0.08232221007347107,0.17512251436710358,-0.1810462474822998,-0.22260624170303345,-0.1197575032711029,0.10606485605239868,0.05044892430305481,0.11553787440061569,-0.004948603454977274,-0.11137650907039642,0.01202059630304575,-0.07871132344007492,0.05730271339416504,-0.16412101686000824,0.04058822989463806,0.03489000350236893,0.3384397327899933,0.07811111956834793,0.03454039245843887,0.032430313527584076,-0.07873936742544174,-0.0033463581930845976,-0.1886279284954071,0.09035949409008026,-0.11119984835386276,-0.004368445370346308,-0.02557888813316822,0.037730004638433456,-0.12318345904350281,0.04854995012283325,-0.01751469075679779,0.054076582193374634,0.038502905517816544,-0.2563703954219818,-0.05076069384813309,0.009261664003133774,-0.004857125226408243,-0.08071063458919525,-0.0702749639749527,0.10625755041837692,-0.05903846397995949,-0.03178580105304718,-0.02220272645354271,0.2647596299648285,0.026440558955073357,-0.006411214824765921,-0.031007735058665276,-0.0020871020387858152,0.028291217982769012,-0.0018480311846360564,0.11757490038871765,0.07429368048906326,-0.07557907700538635,0.1323792189359665,-0.06323708593845367,-0.07847507297992706,0.006233501713722944,0.12522630393505096,-0.042300671339035034,-0.07323051989078522,-0.010569256730377674,-0.13365383446216583,0.04901278391480446,-0.12363562732934952,-0.06375118345022202,0.07930335402488708,0.027078399434685707,0.11577501893043518,0.04895109683275223,0.08246792107820511,0.06703612953424454,-0.07729005813598633,-0.09404702484607697,0.023369837552309036,-0.1778891384601593,0.017342984676361084,-0.11083712428808212,-0.005562319420278072,0.04310292750597,0.02775617316365242,0.06415779143571854,-0.010629887692630291,0.12841293215751648,0.03995740786194801,-0.10793643444776535,-0.011299213394522667,0.056923359632492065,-0.026327796280384064,0.0665256679058075,0.055663738399744034,0.0024673808366060257,-0.07295884191989899,-0.1438945084810257,-0.04270339384675026,0.052167538553476334,-0.09175022691488266,0.0579613633453846,-0.004585114307701588,-0.023769209161400795,0.08170327544212341,-0.011407021433115005,0.09678146988153458,0.022523056715726852,-0.07050573825836182,0.08930259197950363,0.07537149637937546,-0.009415393695235252,0.0022498739417642355,0.0008761187200434506,-0.01202631089836359,-0.09585809707641602,0.029925871640443802,-0.005182603374123573,0.037242867052555084,0.09836972504854202,0.08059810101985931,-0.013236986473202705,0.08560387045145035,-0.054160572588443756,-0.001606167876161635,-0.06643001735210419,0.13927783071994781,-0.06073210760951042,0.11931473016738892,-0.11439893394708633,0.0391867533326149,-0.006472434848546982,-0.09650007635354996,-0.13697442412376404,0.022573009133338928,0.08647563308477402,0.027969099581241608,-0.0655130073428154,0.07616370916366577,0.05787884443998337,-0.020388539880514145,0.02346300147473812,0.006622841116040945,0.07731006294488907,0.07635736465454102,-0.05733058974146843,0.05927823856472969,-0.21185734868049622,-0.0508321076631546,0.3018154203891754,-0.24368681013584137,-0.08434365689754486,-0.006364142056554556,0.03850121423602104,-0.11086827516555786,-0.1263751983642578,-0.02707914263010025,-0.03381797671318054,0.02979872189462185,0.025351928547024727,-0.14671610295772552,-0.07569396495819092,0.060650184750556946,-0.06333115696907043,-0.03930095583200455,-0.025382941588759422,0.07206254452466965,0.11265194416046143,0.0018186080269515514,-0.1167181059718132,-0.03205167129635811,0.08673017472028732,-0.07195339351892471,-0.011942361481487751,0.012072521261870861,-0.05138842761516571,0.021396851167082787,-0.06212060526013374,0.08850204944610596,-0.1411849558353424,0.06575824320316315,-0.08669517934322357,0.00510262930765748,0.18953007459640503,-0.05653706192970276,0.08289941400289536,-0.09208641946315765,0.05197470635175705,-0.025925498455762863,-0.05512875318527222,-0.06141044571995735,-0.02177090011537075,0.09202304482460022,-0.2539186477661133,0.05125875771045685,0.07936213910579681,0.055696021765470505,0.08318965882062912,-0.05865512043237686,0.020120007917284966,-0.059567686170339584,-0.042977478355169296,-0.03395518288016319,-0.03135344013571739,-0.021841654554009438,-0.06387607753276825,-0.11556559801101685,0.02647225558757782,-0.013433242216706276,-0.2368982434272766,0.04132915288209915,0.04807630553841591,0.07356036454439163,0.07433730363845825,-0.0617121160030365,0.022931253537535667,-0.032034389674663544,0.04507472738623619,-0.09939374774694443,0.10124952346086502,0.0516008660197258,0.046606384217739105,-0.04739150404930115,0.05460146442055702,0.05957334488630295,0.010300029069185257,-0.0768493264913559,-0.04800954461097717,-0.006833440158516169,0.05179649218916893,0.13577260076999664,0.04496017098426819,0.09597888588905334,-0.04669700935482979,0.06567408889532089,-0.007881752215325832,0.035963524132966995,-0.03621842339634895,-0.020634492859244347,0.08005542308092117,0.017782429233193398,0.030704734846949577,0.0287111047655344,0.09204673022031784,0.040916021913290024,0.07643819600343704,0.035269834101200104,-0.07772788405418396,-0.06322243064641953,0.06364715844392776,-0.012643168680369854,0.05423116683959961,0.15349529683589935,-0.02586606703698635,-0.04328153282403946,-0.08310455083847046,0.045595355331897736,0.10340940952301025,-0.03525378182530403,-0.16690878570079803,-0.04679311811923981,-0.10000549256801605,0.08855851739645004,0.14191897213459015,-0.06291265785694122,0.025546081364154816,0.10896135866641998,0.06124267354607582,-0.10068465769290924,-0.05453556403517723,-0.10422910004854202,0.028085634112358093,-0.035866111516952515,-0.052944596856832504,0.10097142308950424,-0.0505208894610405,-0.07893543690443039,0.1536778211593628,-0.05672100558876991,0.013734793290495872,-0.04154165834188461,0.15415628254413605,-0.010824707336723804,0.3742644190788269,-0.06424204260110855,0.10011035948991776,-0.032753270119428635,-0.07369481027126312,0.02295859344303608,-0.0971464216709137,0.04531119018793106,-0.05191711708903313,0.05058137699961662,0.02893085591495037,0.015858400613069534,0.0650080069899559,0.3051350712776184,0.0693100243806839,-0.0869133323431015,-0.01506044715642929,-0.1394914835691452,0.12510769069194794,-0.016177065670490265,-0.0006157173193059862,0.036684513092041016,-0.048010870814323425,-0.050866834819316864,-0.04979617893695831,-0.0702865794301033,0.008345802314579487,0.07995905727148056,0.07667388767004013,-0.03320148587226868,0.1511041820049286,-0.014534852467477322,0.12780851125717163,-0.01713745668530464,-0.0842529833316803,-0.08466330915689468,0.026485024020075798,0.08405554294586182,-0.3109758794307709,-0.11004434525966644,-0.0763072744011879,0.3213904798030853,0.10101268440485,0.07170280069112778,-0.016668982803821564,0.07654821127653122,-0.017053930088877678,-0.06542146950960159,-0.06267745792865753,0.041533272713422775,0.04734975844621658,-0.016866976395249367,-0.10511460900306702,-0.08680042624473572,-0.019946079701185226,0.027695784345269203,-0.05885090306401253,0.023798933252692223,-0.048259761184453964,0.07186338305473328,-0.0426783412694931,-0.018407393246889114,-0.09666336327791214,-0.0791180357336998,-0.013855867087841034,0.014278951101005077,0.04770267382264137,-0.07723867893218994,0.015474793501198292,-0.012755868956446648,0.032161250710487366,-0.040164489299058914,0.005584956146776676,0.015298268757760525,0.023573243990540504,-0.030290916562080383,0.028418995440006256,-0.037362124770879745,0.003409334924072027,-0.07507127523422241,-0.08542407304048538,-0.07224979996681213,-0.055512651801109314,-0.05788295343518257,-0.0059427921660244465,-0.019321156665682793,-0.07090285420417786,-0.019812092185020447,-0.046812985092401505,0.054434601217508316,-0.09339291602373123,-0.048225075006484985,-0.07500214129686356,0.010899986140429974,-0.01496885996311903,-0.005081460811197758,0.08764791488647461,-0.04616245999932289,-0.012691320851445198,0.02282310649752617,0.07371930032968521,0.046904776245355606,0.00044989699381403625,-0.0540408156812191,0.008962472900748253,0.035515911877155304,-0.021982120350003242,0.02844633162021637,0.07228822261095047,-0.06110956519842148,-0.019527897238731384,-0.07952672243118286,0.0002227185614174232,0.04268379509449005,-0.017151564359664917,-0.005574398674070835,0.007472167257219553,-0.001883676857687533,0.06866604089736938,-0.0049566058441996574,-0.08683028072118759,-0.0729392021894455,-0.08752144873142242,-0.016799302771687508,0.047729235142469406,-0.01165478304028511,0.06281426548957825,-0.015888655558228493,0.01805836334824562,0.07965270429849625,0.02401040680706501,-0.023265261203050613,0.08508702367544174,-0.07282719761133194,0.012627799063920975,0.055769842118024826,-0.07546708732843399,-0.10105374455451965,0.007706040050834417,-0.04824472963809967,-0.04457910731434822,0.017568249255418777,-0.08467570692300797,0.05918239802122116,-0.025954021140933037,-0.047557976096868515,0.07384033501148224,0.024585656821727753,0.016827285289764404,-0.05735612288117409,0.08419003337621689,-0.026894986629486084,0.07346458733081818,-0.027100222185254097,0.04431358352303505,0.06209719181060791,-0.08474639803171158,-0.058860450983047485,-0.10736202448606491,0.04346359893679619,0.05600680038332939,-0.03761604055762291,-0.06389293074607849,-0.005305116530507803,0.047535791993141174,0.001236981013789773,-0.033319879323244095,-0.056170932948589325,0.05543159693479538,-0.05719083547592163,-0.10612959414720535,-0.05585543066263199,0.017612682655453682,0.012538524344563484,0.013935077004134655,-0.05115259438753128,-0.033897221088409424,-0.03927917405962944,-0.042777564376592636,-0.07439648360013962,0.018080396577715874,-0.025679536163806915,-0.0850236564874649,-0.051560815423727036,-0.053030602633953094,-0.03810210898518562,-0.054564863443374634,-0.015315573662519455,0.03164976090192795,-0.07148325443267822,-0.007565421983599663,-0.025411924347281456,-0.04516393691301346,-0.01961381360888481,-0.037436410784721375,0.002839904511347413,-0.06375246495008469,0.016749199479818344,0.08110152930021286,0.0731889009475708,-0.039604391902685165,0.027218453586101532,-0.08349436521530151,0.07436732202768326,-0.08803404867649078,-0.07893548160791397,-0.07928929477930069,-0.08203152567148209,0.01195775531232357,-0.023360099643468857,0.021142860874533653,-0.005465787369757891,-0.001897100592032075,-0.03190773352980614,-0.05238967761397362,-0.07395297288894653,0.044573988765478134,-0.045547641813755035,-0.017963649705052376,0.04290442541241646,-0.021877752617001534,-0.022273100912570953,-0.05887303128838539,-0.07557445764541626,0.04239814728498459,-0.019929347559809685,0.05552836135029793,0.005814246833324432,-0.00011216971324756742,-0.07974642515182495,0.001949857920408249,-0.019962811842560768,-0.050386764109134674,-0.020443739369511604,0.004617666359990835,-0.06654839217662811,0.014684867113828659,0.061451271176338196,0.01744820363819599,0.08432067930698395,0.041220396757125854,-0.06965671479701996,-0.0347655825316906,-0.021257363259792328,0.02641538716852665,-0.0025193882174789906,0.07107514142990112,0.010261408053338528,-0.0559266097843647,-0.03237922862172127,-0.07348500937223434,-0.024345945566892624,0.04343140870332718,0.0008527347235940397,-0.08423684537410736,-0.07643157988786697,0.032019518315792084,-0.07752801477909088,-0.07044963538646698,-0.05264778435230255,0.0841938853263855,-0.02510751783847809,-0.03641729801893234,-0.05963028222322464,0.05649198591709137,-0.014259289018809795,0.01703168824315071,0.0211024209856987,0.02490253746509552,0.05652570351958275,0.004583611618727446,0.009136340580880642,-0.005736781284213066,-0.06863302737474442,-0.020214859396219254,0.08407332003116608,-0.06259213387966156,-0.05573202669620514,-0.08765831589698792,0.005356500390917063,-0.08262093365192413,-0.045246660709381104,0.08139398694038391,0.03658201918005943,0.04704013466835022,0.01512217242270708,-0.07505995780229568,-0.041103512048721313,-0.0715048760175705,-0.05460505187511444,0.03007480874657631,-0.024489540606737137,0.08632801473140717,-0.06438064575195312,-0.0753808319568634,0.08722420781850815,-0.07630413770675659,0.07516174763441086,0.02377568930387497,-0.08051101118326187,0.07693375647068024,-0.024037884548306465,-0.036420490592718124,-0.06890100985765457,-0.07471226155757904,0.01966681331396103,-0.13446898758411407,0.06780485808849335,0.03868434205651283,0.030994199216365814,0.1315198391675949,0.021342383697628975,-0.0024128411896526814,0.025953499600291252,-0.03593485429883003,-0.060746900737285614,0.059163838624954224,-0.11226299405097961,-0.06246161088347435,-0.06987252086400986,-0.06831350177526474,-0.05900939926505089,0.0687820315361023,0.06364626437425613,0.026962101459503174,0.07176531851291656,-0.046219371259212494,-0.08321315050125122,-0.006377686280757189,-0.027483627200126648,-0.08195814490318298,-0.017205072566866875,-0.027561845257878304,-0.18688297271728516,0.036430101841688156,-0.038404930382966995,0.18185743689537048,0.05587976425886154,0.09047111868858337,0.0013872766867280006,0.019804617390036583,-0.01639929786324501,-0.09483782202005386,0.05511476472020149,-0.02592320926487446,-0.03188120201230049,-0.04121067747473717,-0.1300361156463623,0.00794646143913269,0.0144674526527524,-0.08377966284751892,0.06495485454797745,0.004234835971146822,-0.09878820180892944,-0.0481601357460022,-0.18010282516479492,-0.01255356427282095,-0.019069479778409004,-0.06541164219379425,0.007938758470118046,0.028229080140590668,-0.044521648436784744,0.1578933596611023,-0.03734419867396355,0.1369474232196808,0.18594253063201904,-0.014770235866308212,-0.18546663224697113,-0.0063092573545873165,0.037974998354911804,-0.08422529697418213,0.22817495465278625,0.012770375236868858,-0.044233717024326324,0.03643447905778885,0.0768091157078743,0.07153775542974472,0.048769306391477585,0.04097793996334076,-0.01896699145436287,0.00749586895108223,-0.057123810052871704,-0.05846058577299118,-0.044344499707221985,0.07178284227848053,0.023349976167082787,0.04979134351015091,-0.14170630276203156,-0.002747192047536373,0.028062019497156143,0.046123385429382324,-0.0012674386380240321,0.04128159582614899,-0.08995050191879272,0.019928520545363426,0.12072839587926865,0.032935332506895065,-0.10185056179761887,-0.05065277963876724,0.057902079075574875,-0.06921345740556717,-0.06932333111763,0.0073065063916146755,0.0654512569308281,0.000538019638042897,-0.006463678553700447,0.04856700077652931,0.03592190518975258,0.11405181139707565,0.018875673413276672,-0.07482088357210159,0.01422823779284954,-0.06430350989103317,-0.057304151356220245,0.04284164309501648,0.023319391533732414,-0.15584143996238708,-0.05932564288377762,-0.0945657342672348,0.02508903667330742,-0.040324341505765915,-0.05400601774454117,0.11304616928100586,0.2355477213859558,-0.028930265456438065,0.13427798449993134,0.06761234253644943,-0.12691718339920044,0.06589101999998093,-0.1299714893102646,0.06812548637390137,0.04512190818786621,-0.0855696052312851,0.016408009454607964,0.025778165087103844,-0.03730763867497444,0.061712827533483505,-0.07314594835042953,-0.03328808769583702,0.07890180498361588,0.08627357333898544,0.04412836953997612,-0.05271242558956146,-0.07599878311157227,-0.07708191871643066,-0.022083302959799767,0.04477875307202339,0.02795843593776226,-0.01598859764635563,0.07944144308567047,0.06935787200927734,-0.04128580540418625,-0.03825179114937782,-0.0010362210450693965,0.018329495564103127,-0.0006323548150248826,0.02883007377386093,0.0556650273501873,-0.02119315415620804,0.0381191112101078,0.012008637189865112,0.028636358678340912,0.03109460137784481,-0.028867697343230247,-0.0446501187980175,0.03775494545698166,-0.056540098041296005,0.0411108061671257,-0.05666114389896393,0.060586828738451004,0.0301713515073061,-0.026896454393863678,0.045233774930238724,-0.029083251953125,0.013549817726016045,0.02074439451098442,0.009020636789500713,0.017737140879034996,-0.0070148068480193615,-0.025509703904390335,0.04926205426454544,0.03483778238296509,0.03294309228658676,0.0596216544508934,-0.04622121527791023,-0.020523322746157646,-0.002517744665965438,0.0660092681646347,-0.07560202479362488,-0.05591617897152901,-0.021041443571448326,-0.0807124450802803,-0.06978227943181992,0.05524683743715286,0.004120038356631994,-0.07105569541454315,-0.019847674295306206,-0.00816610362380743,-0.03139814734458923,-0.07914655655622482,0.042810410261154175,-0.010910648852586746,0.08624579012393951,-0.07291003316640854,-0.048473432660102844,-0.004588869400322437,-0.06150086596608162,0.05909761041402817,0.06830229610204697,0.0800233855843544,-0.061012472957372665,0.06283769011497498,0.06132030859589577,-0.035143956542015076,0.00442743394523859,0.036825940012931824,0.06319911777973175,-0.08776988834142685,0.08267899602651596,-0.02221011370420456,0.030719701200723648,-0.05484636500477791,-0.07323580235242844,-0.06507626920938492,0.0520414374768734,-0.043573684990406036,0.046087801456451416,0.021442212164402008,0.029869625344872475,-0.019647037610411644,-0.027933958917856216,-0.04132983833551407,-0.04935561865568161,0.08144615590572357,-0.004800394177436829,-0.03787872940301895,-0.08218628913164139,-0.0014220727607607841,-0.0876869335770607,-0.0010400142055004835,0.055758412927389145,-0.0508582703769207,0.04327094554901123,-0.033434655517339706,-0.07319651544094086,-0.08749259263277054,0.03861606866121292,-0.07283928245306015,0.04313265159726143,0.007380885072052479,0.04274740815162659,-0.07156413048505783,0.07197825610637665,-0.08798689395189285,-0.07230757921934128,0.04768722504377365,0.0030007974710315466,-0.054849907755851746,-0.023782240226864815,-0.07860921323299408,-0.0768745094537735,-0.018950708210468292,0.10560635477304459,0.012488150969147682,-0.17142659425735474,-0.023412752896547318,0.09928546845912933,-0.02435927838087082,0.029819240793585777,0.001404068199917674,0.013779974542558193,0.029449276626110077,0.1647459864616394,0.03154066205024719,-0.13057905435562134,0.14199429750442505,-0.0904482752084732,0.060366082936525345,0.02478696033358574,0.06665428727865219,-0.007771439850330353,-0.07211627811193466,-0.1338925063610077,0.03592373803257942,0.11615823209285736,-0.06020636856555939,0.07397320121526718,0.10596641153097153,-0.030350301414728165,0.22388146817684174,0.10374017059803009,0.10509052127599716,0.06442517787218094,-0.07216150313615799,0.03232594206929207,0.17496131360530853,-0.2200874537229538,0.023571938276290894,-0.010571763850748539,0.01596459001302719,-0.14583343267440796,0.047229036688804626,0.015826676040887833,0.030025238171219826,0.16918867826461792,0.04953790456056595,0.019822483882308006,0.07561657577753067,0.06808745861053467,0.004249539226293564,0.0034100643824785948,0.15957574546337128,-0.017307812348008156,0.1102781742811203,-0.11129868775606155,-0.08370059728622437,0.11215417087078094,0.02012314274907112,-0.13584129512310028,0.09804270416498184,-0.2492566555738449,0.1306275874376297,-0.1245918944478035,0.05716486647725105,0.13044613599777222,0.19375209510326385,-0.06076362356543541,-0.05565006658434868,-0.0326557457447052,-0.005990204401314259,0.03935003653168678,0.10117574781179428,-0.2679118812084198,0.006876015570014715,-0.1609031707048416,-0.2372908592224121,-0.05988786369562149,-0.06773450970649719,0.05585898458957672,-0.048109058290719986,-0.21172934770584106,0.019243713468313217,-0.043288275599479675,0.04022813215851784,-0.04129304736852646,-0.054403118789196014,0.016464179381728172,-0.002166440011933446,0.026184281334280968,0.08829588443040848,-0.10825103521347046,0.02890532650053501,-0.13888007402420044,0.06579779833555222,-0.12976700067520142,0.07195977121591568,0.03602585941553116,-0.2578189969062805,-0.08683925867080688,-0.08684249967336655,0.020410453900694847,-0.09137244522571564,-0.027430526912212372,0.39048928022384644,-0.028751792386174202,-0.03147021308541298,0.007944311946630478,-0.048462286591529846,0.17735911905765533,0.04666396602988243,0.05109306797385216,-0.16770583391189575,0.05451224744319916,0.06773336976766586,-0.08959747850894928,0.07997733354568481,0.03629513457417488,-0.035825908184051514,0.036692723631858826,-0.0645143911242485,0.13566091656684875,0.024994056671857834,0.046808674931526184,-0.06748797744512558,0.06641064584255219,-0.0564371757209301,-0.01613328978419304,-0.02223474718630314,0.04508250951766968,0.01942240446805954,-0.013135645538568497,-0.05406816676259041,-0.15367211401462555,0.07618715614080429,-0.27821293473243713,0.0594271644949913,-0.029559636488556862,0.0008827011333778501,-0.08602102100849152,-0.02870655432343483,0.07845169305801392,-0.08754797279834747,0.04067644104361534,-0.19463352859020233,-0.09303421527147293,-0.08008542656898499,-0.06992058455944061,-0.0713050365447998,-0.024602394551038742,0.01202206127345562,-0.0686940848827362,0.022388141602277756,0.08892598003149033,0.16955184936523438,0.01865338534116745,-0.06849604845046997,-0.026001811027526855,0.09869565814733505,0.18557293713092804,0.06448470801115036,-0.18357641994953156,0.06668245047330856,-0.06747245788574219,0.15915106236934662,-0.07119889557361603,-0.08954377472400665,-0.1471175253391266,-0.01408564206212759,-0.013512732461094856,0.007706708740442991,0.00884236954152584,0.08395352959632874,0.21322770416736603,-0.0110247191041708,0.08932708948850632,0.05724041163921356,0.02202262356877327,-0.05403546616435051,-0.08274238556623459,-0.08014234155416489,0.00968265812844038,0.08761685341596603,-0.05269429460167885,0.011291030794382095,0.08180346339941025,-0.09639424085617065,0.017031768336892128,0.017038563266396523,-0.14878582954406738,-0.02234046906232834,-0.2522636353969574,-0.14172013103961945,-0.013895592652261257,0.1678599864244461,-0.053627267479896545,0.051818232983350754,0.045179642736911774,-0.011129054240882397,-0.07342790812253952,-0.11703365296125412,-0.19758760929107666,-0.0443245954811573,-0.21841579675674438,0.03367799147963524,-0.025018123909831047,0.05988094210624695,-0.2111840546131134,-0.024373594671487808,-0.10502716898918152,0.0483408123254776,-0.059790290892124176,0.03970734775066376,-0.011149147525429726,-0.022609852254390717,0.1038157269358635,-0.04351673275232315,-0.025256548076868057,-0.04685654863715172,0.07181156426668167,0.02836320549249649,0.15823151171207428,-0.15639087557792664,0.0633547306060791,0.04156384989619255,-0.038697175681591034,0.0630391463637352,-0.10115483403205872,-0.008405577391386032,-0.0640367791056633,-0.30703580379486084,0.022455312311649323,0.09700638800859451,-0.05495727062225342,0.030218228697776794,-0.06398620456457138,0.015435608103871346,0.16235969960689545,-0.013555405661463737,0.12984153628349304,-0.1666620522737503,0.05866933614015579,-0.1517636924982071,0.09397915005683899,0.03516964986920357,0.08689288049936295,0.1639453023672104,-0.15484575927257538,-0.08415082097053528,-0.022635243833065033,-0.3240819573402405,-0.054918646812438965,-0.006184788420796394,0.03840085491538048,0.09360449016094208,-0.12649764120578766,0.0642472580075264,-0.00934829656034708,-0.03706575930118561,0.01614796742796898,-0.022501779720187187,-0.06923183053731918,0.020674893632531166,-0.08879100531339645,0.05210185423493385,0.07742147892713547,0.04073777049779892,0.04673455283045769,-0.0878123939037323,-0.04908331111073494,-0.08500254154205322,-0.07598115503787994,-0.1019982099533081,0.035107217729091644,0.04763593524694443,0.05200238898396492,-0.03921334072947502,0.06731779873371124,-0.012759430333971977,-0.02288774959743023,0.04754049330949783,0.028500908985733986,-0.06347674131393433,0.05409664288163185,-0.0388837493956089,0.023516032844781876,-0.11790841817855835,0.009833544492721558,-0.07370194047689438,-0.08528272062540054,-0.03687911108136177,-0.0004113262111786753,-0.05509226769208908,-0.08656293898820877,0.06323403120040894,-0.0037129796110093594,-0.11216996610164642,-0.011374280788004398,0.021699851378798485,-0.02640470862388611,0.021450290456414223,-0.03737891465425491,0.038630660623311996,-0.06217293068766594,-0.0376618430018425,0.06616158783435822,-0.08469702303409576,0.0433407723903656,0.08173263072967529,-0.08077258616685867,-0.03869801014661789,0.07537767291069031,-0.03532016649842262,-0.012537476606667042,-0.0173984132707119,0.006568507757037878,-0.0663699209690094,-0.018481483682990074,0.030181048437952995,-0.03714936599135399,-0.08104176819324493,0.0005911774351261556,-0.05250374227762222,-0.01863449066877365,0.01609301194548607,-0.014498893171548843,-0.0534200519323349,-0.07071845978498459,-0.0432366207242012,-0.05157056450843811,-0.018699122592806816,-0.060363564640283585,0.03403674066066742,0.045814789831638336,0.017430417239665985,-0.009981936775147915,0.010341129265725613,0.06604031473398209,0.019987940788269043,-0.01653112657368183,-0.04853738099336624,0.02946026623249054,-0.11253155767917633,0.027851330116391182,-0.07656341046094894,-0.06653958559036255,0.01666111685335636,-0.08227661997079849,0.07033061236143112,-0.07875599712133408,0.05367173254489899,-0.002740821335464716,-0.03827812522649765,0.023961547762155533,-0.10807293653488159,-0.05594253912568092,-0.05532551184296608,0.011629105545580387,-0.02127803862094879,-0.0759727880358696,0.08524061739444733,-0.030018750578165054,-0.07714436203241348,0.0021096786949783564,-0.0379156619310379,-0.005614929832518101,0.031972069293260574,-0.055026616901159286,0.005149707198143005,0.022596850991249084,-0.057439882308244705,-0.04966377839446068,-0.04299196973443031,-0.05842820182442665,-0.022783370688557625,0.003245333442464471,-0.07134313881397247,0.018119044601917267,0.054364003241062164,0.016986897215247154,-0.07789260894060135,0.08085708320140839,-0.060706958174705505,-0.044915344566106796,0.03896215558052063,0.07026592642068863,0.08429710566997528,0.13428917527198792,-0.07315030694007874,-0.022640129551291466,-0.05544962361454964,-0.1336301565170288,0.08735549449920654,0.043496355414390564,-0.08156482130289078,-0.03801459074020386,-0.07452621310949326,0.029748322442173958,-0.02555050142109394,-0.12307325750589371,-0.007865386083722115,0.034230250865221024,0.008176624774932861,0.0828847661614418,-0.0011726925149559975,0.021806996315717697,-0.026749886572360992,0.04299761354923248,0.0031632103491574526,0.08106261491775513,0.016147112473845482,-0.0077656833454966545,-0.10871534794569016,-0.08404544740915298,0.0582735612988472,-0.04185463860630989,0.0649004578590393,-0.0731036439538002,0.03453369066119194,0.07647187262773514,-0.0806443989276886,-0.0361277274787426,0.06934826076030731,0.0876341462135315,-0.0436272993683815,0.16958561539649963,-0.08649133145809174,-0.001178008853457868,0.028647353872656822,-0.012976307421922684,-0.014017208479344845,0.1521289348602295,-0.024269670248031616,0.06574506312608719,-0.04149452596902847,-0.0504629984498024,-0.15715956687927246,-0.07988797873258591,-0.01043124869465828,0.04305426403880119,-0.08448794484138489,-0.09124825149774551,-0.06789316236972809,0.007580218371003866,0.2161533534526825,-0.09562702476978302,0.0008692190167494118,-0.02451997622847557,-0.2457723170518875,0.1606154590845108,0.1290578842163086,-0.020477497950196266,-0.15374618768692017,0.023503582924604416,0.00759436609223485,-0.0208077821880579,-0.057611603289842606,0.11765789240598679,0.038524799048900604,-0.2812151312828064,0.0749644935131073,-0.07123170047998428,-0.025211388245224953,0.0049171363934874535,-0.01428613718599081,-0.27794384956359863,-0.0676892101764679,-0.02377474308013916,0.04827984794974327,-0.07581846415996552,0.043877094984054565,0.03216496482491493,-0.06859898567199707,0.017790641635656357,0.12373748421669006,0.07122363895177841,-0.0009623693767935038,0.03108641877770424,0.27525943517684937,0.06614943593740463,-0.04133061692118645,0.097673699259758,0.004961506463587284,-0.0894915834069252,0.03783470764756203,0.08385644108057022,0.03742489591240883,-0.07434989511966705,0.12829995155334473,-0.19006682932376862,0.07569526135921478,0.06340283900499344,-0.06201541796326637,0.0786658525466919,0.04427984729409218,0.09342356771230698,-0.09251461178064346,0.14055564999580383,0.010006844997406006,-0.08959419280290604,0.07739461958408356,0.04115145280957222,0.011660323478281498,-0.2789759635925293,-0.15524762868881226,-0.05290518328547478,-0.09199726581573486,-0.07568033784627914,0.029341787099838257,-0.0259485375136137,0.06869742274284363,0.031161734834313393,-0.044608622789382935,0.015425830148160458,0.08129027485847473,-0.016914328560233116,-0.04377498850226402,-0.028412707149982452,-0.08102332055568695,-0.05665895342826843,-0.04753067344427109,-0.055028680711984634,0.07479791343212128,0.017144419252872467,0.06840987503528595,-0.05129661783576012,-0.01227995753288269,-0.009105259552598,-0.02625601924955845,-0.06157297641038895,-0.08665613830089569,0.06653641164302826,0.07994335889816284,-0.08746460825204849,-0.029218701645731926,-0.09800517559051514,-0.03585375100374222,0.03582524135708809,0.015840914100408554,-0.03834247961640358,0.037725482136011124,0.026371028274297714,0.01676696352660656,-0.10227233171463013,-0.004188038408756256,-0.10931166261434555,-0.058079302310943604,-0.03291294723749161,-0.03984248638153076,-0.11444233357906342,0.002198155503720045,-0.017252866178750992,-0.0662555918097496,-0.002603311790153384,0.07718513160943985,-0.046548545360565186,-0.0784684345126152,-0.10947626084089279,-0.06449075043201447,-0.08020200580358505,-0.06529256701469421,-0.03472457453608513,0.017276527360081673,0.027633337303996086,0.048428986221551895,0.08770542591810226,-0.06313666701316833,-0.03458923101425171,-0.019263101741671562,-0.10109229385852814,0.0165973212569952,-0.04635218530893326,-0.10491310060024261,-0.0666809156537056,-0.060854945331811905,0.024268396198749542,0.03626003488898277,0.03867302089929581,-0.05516979098320007,-0.05129023268818855,-0.03920450061559677,-0.09177662432193756,-0.022775765508413315,-0.0797765851020813,0.015773024410009384,-0.11065653711557388,-0.05493171140551567,0.05926677957177162,-0.09709794074296951,0.021117866039276123,0.06615430116653442,0.05559758096933365,0.04469825699925423,-0.054746050387620926,0.05045757070183754,-0.034410927444696426,-0.058718543499708176,0.0002876650542020798,-0.011372263543307781,0.027855539694428444,0.0370769277215004,0.010712158866226673,-0.01747017167508602,-0.004445559810847044,0.005874610040336847,0.021246708929538727,-0.11591426283121109,-0.017185235396027565,-0.06909853219985962,-0.07780637592077255,0.03415711969137192,0.018061745911836624,0.014955312944948673,-0.04190463945269585,0.04081662744283676,0.08289576321840286,0.010806840844452381,0.03630460798740387,-0.10722623765468597,0.05249578133225441,0.030679721385240555,0.008943865075707436,0.03683369979262352,-0.05461601912975311,-0.0364827997982502,0.05401119217276573,0.06462626904249191,-0.09477248787879944,0.03918956220149994,0.08791620284318924,-0.01982051692903042,-0.06890834122896194,0.017120586708188057,-0.017838316038250923,0.03211064264178276,-0.11634036898612976,-0.008861016482114792,-0.0010359049774706364,-0.02444259263575077,0.029405733570456505,0.0015951290261000395,-0.0711090937256813,-0.051509566605091095,-0.07105959951877594,0.005708986893296242,0.041097890585660934,-0.01648562215268612,-0.015971539542078972,0.029750311747193336,-0.0858900249004364,0.06171345338225365,-0.010268562473356724,0.061452534049749374,0.08989669382572174,0.009435920044779778,0.029984623193740845,-0.024707742035388947,0.059291061013936996,0.051682598888874054,-0.013869504444301128,0.034426428377628326,-0.004947749897837639,0.06900627166032791,0.008654569275677204,0.06438858807086945,-0.10231030732393265,0.08702174574136734,0.01024422887712717,0.055465105921030045,0.01968284137547016,0.043138857930898666,0.09490538388490677,-0.01811203360557556,-0.03481075540184975,0.08111311495304108,-0.018627682700753212,-0.055212561041116714,0.04607607424259186,0.04927697405219078,-0.005969340912997723,-0.008938995189964771,-0.050182465463876724,0.08099345862865448,0.04927098751068115,0.042621713131666183,0.04383646324276924,-0.04623353108763695,-0.00693220691755414,-0.07641317695379257,0.05130114033818245,-0.10598151385784149,-0.08828502148389816,-0.08251723647117615,0.054455555975437164,0.013475640676915646,0.00020080040849279612,-0.007106282748281956,-0.018749168142676353,-0.027055412530899048,-0.06393935531377792,-0.050786133855581284,-0.05869976803660393,0.02420799806714058,0.07316070795059204,-0.06923314929008484,0.021710116416215897,-0.0881199836730957,-0.03659607470035553,0.05170563608407974,0.0022421246394515038,0.07243449985980988,-0.0016546256374567747,-0.03545593097805977,-0.04357432574033737,0.0025897840969264507,-0.08305252343416214,-0.09098579734563828,-0.037792790681123734,0.0022689623292535543,-0.06573178619146347,-0.05040434002876282,0.06488439440727234,0.08163067698478699,-0.03405715897679329,-0.10157930850982666,-0.033814456313848495,0.032586801797151566,0.029442261904478073,-0.027375029399991035,-0.09398005157709122,-0.05157706141471863,-0.03646731376647949,0.08679784834384918,-0.05403902754187584,0.009481037966907024,-0.006860565394163132,-0.007327760104089975,-0.08053895086050034,0.04844364523887634,-0.015748463571071625,0.05556315556168556,-0.045695167034864426,-0.09686261415481567,-0.07040385901927948,-0.014318610541522503,-0.024806635454297066,-0.029792720451951027,0.07366648316383362,-0.08146624267101288,0.025917410850524902,0.07432182133197784,-0.017595695331692696,-0.08225349336862564,-0.0183967687189579,0.020956486463546753,0.03409094735980034,-0.04683399945497513,-0.030307017266750336,-0.048826009035110474,-0.08014589548110962,0.04550040513277054,-0.05424479767680168,-0.032354146242141724,-0.017012320458889008,0.05164847522974014,0.07853858917951584,-0.0902358740568161,0.0530426949262619,0.07912594079971313,0.07135263085365295,0.007688943762332201,0.03363155946135521,0.01733563281595707,-0.09851264208555222,-0.04656215012073517,-0.022108202800154686,-0.08381258696317673,-0.02907935343682766,0.07121170312166214,0.041126471012830734,0.07692492008209229,-0.021142801269888878,-0.045043956488370895,0.014599313959479332,0.017460882663726807,-0.009035659953951836,-0.03742462769150734,0.03628202900290489,-0.06522821635007858,0.07048115879297256,0.07727523893117905,-0.0037290749605745077,0.06877964735031128,0.02571732923388481,-0.06294044852256775,-0.10374435782432556,0.007917419075965881,0.05544627085328102,-0.02736988477408886,-0.01862860843539238,0.03910818323493004,0.016221418976783752,0.06602756679058075,0.012966045178472996,-0.014176500961184502,-0.05344020947813988,-0.014902745373547077,-0.07162300497293472,0.035073261708021164,0.07021736353635788,0.032776907086372375,-0.020545294508337975,-0.06207553297281265,-0.12990717589855194,-0.016353808343410492,-0.08676004409790039,-0.06520310789346695,-0.017489677295088768,-0.030696606263518333,0.017817536368966103,-0.07176302373409271,0.06347038596868515,-0.10763911157846451,-0.07884454727172852,-0.06724237650632858,-0.02553948201239109,0.004858899861574173,-0.06101140007376671,-0.010950067080557346,-0.028410209342837334,-0.06939911842346191,-0.04523514583706856,0.005912858992815018,-0.1125473901629448,-0.09235039353370667,0.06900283694267273,0.005350988358259201,-0.029245426878333092,0.002789749763906002,-0.02079716883599758,-0.0072343116626143456,-0.06668266654014587,-0.024068228900432587,-0.1001293957233429,-0.10765449702739716,-0.016618069261312485,-0.01166419219225645,0.04967799782752991,0.015211818739771843,-0.042598284780979156,-0.002447169739753008,0.019370514899492264,-0.07015343755483627,-0.016510983929038048,-0.03531239181756973,-0.10576527565717697,-0.012340722605586052,-0.11018779873847961,-0.08105000108480453,-0.08146429806947708,0.04592212662100792,-0.11177133023738861,0.03740212693810463,-0.0024927763734012842,-0.07989411801099777,0.06125752255320549,-0.04849379137158394,-0.07481294870376587,-0.012262013740837574,0.0436570830643177,-0.11081944406032562,-0.006617328617721796,0.03729978948831558,-0.04601294919848442,-0.015687210485339165,-0.034616079181432724,-0.05924888700246811,0.043548356741666794,-0.062709279358387,-0.03501386195421219,0.006055331788957119,-0.08596531301736832,0.01020559761673212,-0.10146648436784744,0.07139028608798981,0.039339203387498856,-0.04166260361671448,-0.09165938198566437,-0.0033823554404079914,0.01583160273730755,-0.07962413132190704,-0.03745120391249657,-0.11971263587474823,-0.08831142634153366,-0.036969054490327835,0.046759579330682755,-0.00415687495842576,0.02768547274172306,-0.03530488535761833,-0.06933257728815079,-0.008400194346904755,0.03458232060074806,0.05403541773557663,-0.001889868057332933,0.020550185814499855,0.027085069566965103,-0.03648833557963371,-0.05077652633190155,-0.01077690627425909,-0.09805698692798615,0.014331674203276634,0.003548972075805068,0.0014591279905289412,0.013912028633058071,-0.006176535971462727,0.006644966546446085,-0.03796207532286644,0.040755949914455414,0.08150336891412735,0.08790398389101028,0.006002132315188646,0.03736391291022301,0.12598152458667755,-0.08271761983633041,-0.0907588079571724,-0.08665204048156738,0.22279101610183716,0.07220827788114548,-0.05486461892724037,-0.17967215180397034,0.02139800600707531,-0.06592898070812225,0.008942957036197186,0.03951723501086235,-0.04116081818938255,-0.018292365595698357,0.02170550636947155,0.14555607736110687,0.07804667949676514,0.029412776231765747,0.08590208739042282,0.00401195278391242,0.052646856755018234,-0.09035523980855942,-0.07280688732862473,0.04144422709941864,0.12647058069705963,0.019442297518253326,0.24587427079677582,0.010511581785976887,-0.02026437781751156,0.10407977551221848,-0.0631270557641983,0.09019068628549576,0.02145119197666645,-0.13216038048267365,-0.06097568944096565,-0.0899149477481842,-0.09559008479118347,-0.11035028100013733,0.39383554458618164,-0.05593067780137062,-0.08993455767631531,-0.034105416387319565,-0.16350282728672028,-0.08435428887605667,0.0026988389436155558,-0.07844250649213791,0.03335410729050636,-0.0586247593164444,-0.05948111414909363,0.3001280725002289,-0.017009735107421875,-0.040390681475400925,0.08172019571065903,0.1604299545288086,0.014183164574205875,-0.034837767481803894,0.09340623021125793,-0.04634895175695419,-0.03671083599328995,0.08556446433067322,0.10788430273532867,-0.07867982238531113,-0.02374131791293621,0.0194752998650074,0.1974644511938095,-0.07384645193815231,-0.13225868344306946,-0.0456668883562088,-0.11399611830711365,0.13864508271217346,